{"architecture": {"layers": [784, 128, 64, 10], "activation": "sigmoid", "num_samples": 60, "test_accuracy": 0.8333333333333334}, "weights": [{"layer": 0, "weights": [[-0.09923405752518859, 0.02468032385726349, 0.052329716181418115, -0.029776964554031785, 0.0003209467792359708, -0.05271064402690909, -0.003026335390828167, -0.058925991555444264, -0.026280271092202694, -0.0021978834488533433, 0.07031560441971513, 0.006991787415397425, 0.017232393801344812, 0.005729347964864319, -0.013259032296011766, -0.004091757932418306, -0.0025015607774758796, -0.006480050671895778, -0.008084585792263729, 0.022342041885272976, -0.037118489708242525, -0.025428754036443114, -0.004246431512938755, 0.034139834366492455, -0.03387430589293622, 0.039509090311762286, -0.022710826048108215, -0.010806727965510483, 0.001514401284038564, 0.017588470453598303, 0.03291172523309178, -0.006155147527300185, -0.0038659418010092753, 0.006109199623198211, -0.009709109703165911, -0.03236785488213054, 0.030277877911464524, 0.0062124151319063944, 0.029718359845595666, 0.0667653743998024, -0.018102230556757644, 0.008994578625083379, -0.028597550413169248, 0.000996700449868733, 0.007087778626828493, -0.050132050701682626, 0.005629971201179553, 0.0050068960727060055, -0.08143894186115987, 0.03695573448512923, 0.03208638386599246, -0.03131578699466736, -0.005225992458512674, 0.0015800688343776301, 0.00027298630661517256, 0.021253777259160334, -0.022499791469548454, 0.0697341947668134, 0.00660021483923868, 0.04197020218480897, -0.07079112986558875, -0.04478821706752573, -0.03584680987569057, 0.09045848352294267, -0.05395102104300554, 0.014353312082713112, -0.04382850879116925, -0.022745873248030558, -0.013819621092495266, -0.014192743310902582, -0.019047511741826322, -0.0042299230037717225, 0.009878898798616179, 0.03167150563228886, 0.038628391684025765, 0.0630403849284056, -0.05254259666287316, 0.05382806191100773, 0.020805288769604108, -0.00714699996916455, -0.012630560496827255, -0.03756367148408731, -0.0036160992102623212, -0.01079852378229641, -0.013626020600018976, 0.012052344850020385, 0.0451116397350167, 0.002978937866772525, 0.0025602399670589457, -0.0038619767351330226, -0.0038883804912669133, 0.009443702295033744, 0.028310108618949937, -0.00664390003765027, -0.05593625552825947, 0.005461446339940629, 0.03245416807300939, 0.0037513924978976147, -0.048073516293945386, 0.061103338046858524, -0.026315879563350755, 0.0045030068927013394, 0.06246894214885215, 0.016720001925106122, 0.007031967575346074, -0.00418843214110855, 0.02674864012204213, -0.04453507298027102, -0.034686396242420446, 0.00941422140946874, 0.039081823468718316, 0.03637400785135365, 0.017313927496535184, 0.05239779163989329, -0.007203830254794168, -0.02287668920794102, 0.047618753595409055, -0.025501644715232773, -0.032510364266593976, -0.010777967196835065, -0.0041632365887039596, -0.03819618512061314, 0.029931570789962503, -0.031666390069975736, -0.06494513400241812, 0.036042216316240265, -0.04232524991070034, 0.05769556274327575], [0.014450406608597002, 0.0074949516205173915, 0.028938620560394958, -0.03027089802418351, -0.04938964059703717, -0.027466849725332594, 0.0237550811255198, 0.032988212217411515, 0.024632145810399644, -0.008030288909408236, 0.02182342658571574, 0.020741202573098895, 0.011096705029223422, 0.033932161839614706, 0.002071506099078703, 0.04887431044103049, -0.013754706591056234, 0.023861141050269603, -0.035798433088266884, -0.002976036397441676, 0.00383280246769498, -0.01578568322185751, -0.005968231882002588, -0.08677316616398993, -0.03612082980630351, -0.0073612363900156085, 0.009388078151094154, -0.034031744376562534, -0.01784309189822818, 0.0009839191478551793, 0.047869754408225815, 0.022240442125235228, -0.02082661231424501, 0.04826143983216438, -0.03544766489839749, 0.008993000007736006, -0.0007606091176377693, -0.018503778063291818, -0.046971576305182755, 0.035709735697327064, 0.021858267889495, -0.02322219415694617, 0.023405482308281343, -0.0339550087851141, 0.0029737874478920996, -0.021277713192978453, -0.03355732256069549, -0.022819543931755074, 0.02023301400924329, -0.012776137082253235, 0.017348378454208117, -0.07751923548186751, 0.00281249073347583, -0.007956285145052415, 0.02158458549727824, 0.024538352437777224, 0.05351498826752621, 0.03331635256864699, -0.02805894168400293, -0.01564525597489123, -0.0015045628629812382, 0.0020664548709258736, 0.03203343253956518, 0.04494127432348175, 0.009293899086536874, 0.02510142025821858, -0.010726181011702524, -0.018817518038942327, -0.028812115543711946, -0.0008432109655701545, -0.01402354582862385, -0.04296545806330677, 0.018204618981039436, -0.010996469228075963, -0.034116538847085334, 0.04184854011913841, -0.009102614378919202, -0.002228581922657235, 0.008382390323108217, 0.03572470812871257, -0.0395427912565336, -0.042145320039911, 0.015642960622665635, 0.01311951627657075, 0.012003001875484528, -0.05615520729638919, 0.0017599494478786409, -0.006269962238851091, -0.026829854316273567, -0.04170824458208338, -0.03548909434577987, 0.016963257197188216, -0.05429544464708521, -0.0061557100505648405, -0.011059548282906598, -0.005159510084809685, -0.0024089283831576808, -0.009913410273470322, -0.004677005420344626, 0.0010623902685449908, -0.034614010649451465, 0.002784033253274466, -0.033665968481340305, 0.0225687326584497, -0.07099731706385572, -0.02039527494317954, -0.04765338498499554, 0.06049600225301516, -0.0012042931555810586, -0.030936911228603512, -0.015329837077667368, -0.049148809650482315, 0.00915994001605711, 0.012358061481603072, -0.031428148586693794, 0.010350896747915166, -0.011901512417452426, 0.04897895521409105, -0.03579384487375148, -0.0028600890368625544, 0.04332055631745664, 0.027234585719195056, 0.051258315006402995, -0.004552863333212579, 0.04964221380537469, 0.0033181227731728627, 0.023007035668830878, 0.002573881660094043], [0.037348402406969405, 0.0336010997600438, -0.0063063898868459985, 0.008214834689145679, 0.014303615048205728, 0.06503171674123293, -0.03372704659133499, 0.01590242857854358, 0.03397849565496246, 0.009731272233897482, 0.03844981380686489, 0.08341451589933138, 0.04177965463531076, 0.037390484383805274, 0.04126054730713143, -0.01360336252246857, -0.007880114946156877, -0.0209885341750924, -0.03229916525883776, -0.013172376717773453, -0.01671585780804034, 0.023594296454358135, -0.007867748490438574, -0.016197307712548844, 0.002581500798419584, -0.07287411557047802, -0.012940615909020101, 0.027578861268145786, 0.004550036542678566, 0.030168716291930325, 0.01878290519207076, -0.03307882233881274, 0.022962008648176192, -0.03249373851374346, -0.04706522649212323, 0.028106542781875226, 0.035931525627477735, 0.0453124260654269, 0.02778246020842578, 0.053826198801197454, -0.06900339987936521, -0.07442682309527156, -0.02762448385507522, -0.03428867635114277, -0.0059571825579166765, -0.026701564285816503, 0.004326546491747807, -0.010595882611786204, -0.038838813200555815, 0.02171210225027563, -0.024484989658145405, 0.022580114763557035, -0.05570553902636498, 0.0024546683565011998, 0.017906382175582092, 0.010231892601182157, 0.004886901833333825, 0.06399803542544523, -0.03235358345009229, 0.03883441414217688, -0.029968766226438032, -0.0030202455304365345, 0.006412151436775858, 0.05416368759013181, -0.015213956600825891, 0.029659076948776862, -0.010185034143766482, -0.005492797083661033, 0.036699258384798726, 0.009335894616804355, 0.0009165841640221822, 0.028891585466182923, 0.06207412072181499, -0.032671483247126216, 0.041394460016825965, -0.01699168828923163, 0.02397753808541674, 1.3366628585990342e-05, -0.01043231319964856, -0.02877002405535682, 0.009041903627400066, 0.03518918624823878, 0.007037313401293971, 0.019115979667705885, -0.07889159022826488, 0.07953896837474976, 0.046081027859967295, 0.007806149551844237, 0.01478961743151642, 0.05986988785343323, -0.009467576679293105, -0.06855402646459474, -0.04779274305280651, -0.014180620818342118, -0.01865245862020135, -0.03604048736863599, 0.023324455460368026, 0.04311502771115149, 0.007467540089083263, -0.01155456318925704, -0.020194950961768498, -0.06115337689844182, -0.027041613743244028, 0.025458386728985965, -0.0075469211786845, -0.004180884126557188, -0.0037205142398253335, -0.015141763991333674, -0.07939807466249806, -0.03344150035024374, 0.004014285549239421, 0.02013842891096997, -0.035004893685306064, -0.02723062605247413, 0.060820016980275594, -0.020009132968023025, -0.047254809277540555, -0.00323810386025453, 0.04676200793108637, -0.03961026351670973, 0.04228608595352525, 0.012065096865573385, 0.054292709767728375, -0.0005092421105187565, 0.041573503084446184, 0.021017361262603822, 0.01277633506743639, -0.004772230477845364], [0.03563485040865174, -0.01626055855723775, -0.03358041175273925, -0.04823145825381567, 0.03168686469207048, 0.004577836335277749, 0.015399168927610488, 0.02320755076103382, 0.00018882930796028816, 0.00586281499230323, -0.041065611823559826, 0.0025082797922031104, -0.05766401149316099, -0.01785063924093797, -0.0015201212648209025, -0.012229252211100335, 0.053870441193627286, -0.06401096627682151, -0.053105389487695526, 0.004918069524063751, -0.07010316489689798, -0.025555717719878773, -0.015081064825806897, 0.005440899933871891, 0.026361327040919917, 0.01707282653164395, 0.03107290392804919, 0.033427303583208744, -0.021761976886134408, 0.057850159960776124, -0.0448627664489806, 0.004415906800568689, -0.02285611821268336, -0.009197064596460629, -0.04183616002697876, 0.028032916395422616, 0.09232969174906444, -0.03809056020777828, -0.03736472966937215, -0.015477199302135296, 0.04454214913128116, -0.020240324231963494, -0.020756170675964088, 0.012412316671116433, 0.016176849624083143, 0.006786565370724698, 0.016772549481196757, 0.007307746568159073, -0.026269835385337746, 0.036791139421401574, -0.03205495133882907, -0.0023206983398571853, 0.033869640327413464, -0.027947740934063624, -0.04614344119454342, 0.05760601975918798, -0.007832892117548182, 0.012214942164658826, 0.009266656443587755, 0.009698949948614727, -0.005572269109838156, -0.044164792115652884, -0.00014838138396761942, 0.045199962720974186, -0.035894267083666755, -0.0708852543846275, 0.027566181073946473, -0.0047731511321803845, 0.021518970365040805, -0.00016560546377220473, 0.04511082812914717, -0.0012310220501090838, 0.019169325928880168, -0.028565352805560756, -0.04306867667651113, -0.037266660876528655, 0.023518319792249186, 0.012411891597442722, 0.008390172207275365, 0.022213847326688612, 0.008222623631179855, 0.012731972963545562, 0.023959691044953452, 0.022891812948637978, 0.05441393917496275, -0.018396631005518974, 0.02540497092399121, -0.02461172807264947, -0.010000192506071282, 0.012308729250169632, -0.03011985424752609, -0.034476987112175214, 0.006115805713370793, -0.03954210992137382, -0.014255601686946052, 0.01602085479900157, -0.035086436737882795, 0.013960308938040391, -0.04019970821409518, 0.02379307151871241, -0.05491435583456312, 0.011810648992905032, 0.010751463908488601, 0.023787426899425194, 0.07618822218442162, -0.026402843240458777, 0.07352976668594027, 0.04390975305152085, 0.020151460726847776, -0.0294516426007468, 0.019629085004178856, 0.029605373116326498, 0.019748951035068525, -0.0155228593775623, 0.016250902911456575, -0.056367571753880255, -0.023545170534594498, 0.030711447229327015, -0.023800519859276364, 0.005705755358398009, 0.03432709741993411, 0.06243748866540096, -0.026880284883890333, 0.007801582058556444, -0.008659661041524084, 0.0031683646755171755, -0.025043768599473226, 0.004198920072381279], [-0.026089860764017377, -0.045474404488949884, -0.005673564067664391, 0.01379929150894622, 0.05017239016543705, -0.019601377305369688, -0.04786201393161468, 0.03529651627459005, 0.010117875550727224, 0.023123936822916833, 0.009913511801195965, 0.012942274597378503, 0.00946680712732275, -0.006120079350400308, 0.027141405236794935, -0.018034045196880663, -0.05653636822552833, 0.0540424880937567, 0.03223532544263775, -0.01868840680124878, 0.030395880872842763, 0.010323212571099891, 0.02800537427013007, -0.07061000941737951, -0.020436729619417175, -0.0022520090670409393, -0.07459088765269227, -0.018508250662304805, 0.0005396901219334296, -0.021755037759649057, -0.03206505494251766, 0.01715810600013373, -0.013336234301344844, -0.03679359363424974, -0.044128972660838546, 0.030926607643279543, -0.004065072662472719, 0.05303522365229517, 0.011149213762965186, -0.025483955178878557, -0.022886719086644552, -0.0713017772982641, 0.007424700508301784, 0.00797443989143816, -0.03626424449714017, -0.10097698777091982, -0.055484995280168814, 0.021989539993011377, -0.016884589144937356, 0.09265642782126002, -0.01270489325683008, 0.039006571243991546, 0.0014813922606415717, 0.04274612093685005, 0.05580814911486033, 0.008131988554987526, 0.016387648407895757, -0.04593963247815952, -0.0168446711277474, -0.025100693931314116, -0.005663360665719833, -0.09159831761088444, -0.019192077814090987, -0.04826245967885625, -0.009542825151138683, 0.02874731546420993, 0.022261692449647746, 9.995904703500718e-05, -0.021805300412853702, -0.07304395445540017, -0.008915356518517199, 0.018225278437335235, -0.025539714886815404, 0.039653750822714766, 0.0401035606138678, -0.012591857904182635, -0.009388175339208622, 0.020620415160657758, 0.10938422536567556, -0.045005644375003775, 0.0033266138357798173, -0.016748196150002642, -0.04118302738231902, -0.03218845461748851, -0.006074606890120699, 0.021120973877258822, -0.04475117210168784, 0.01054059038107154, -0.013339301747847232, 0.06472029954900312, -0.0018728519970130978, -0.024690181954273256, 0.01122216184616278, -0.03094842674466162, -0.0183638732645453, -0.001137601355628715, -0.014711450988893806, -0.02353421408997768, -0.06970648212638063, 0.037345795366678196, 0.010296005027602593, -0.020467079519249483, 0.00761468506714626, -0.013462423681119516, -0.016741716889088296, -0.034595746331683434, -0.04521898891612093, -0.06924575626760004, 0.05235293276051447, 0.024014647343052822, 0.005984670907257034, 0.05615930229139515, 0.04014142607001992, -0.016323956962461833, -0.005288500134980977, 0.017638738534206333, 0.03945030534563068, 0.02941123189547372, 0.02505793667395536, -0.05698281713019306, -0.0006975278181502531, 0.004821907941561878, 0.008265437183116897, -0.03381344870831416, 0.04310928025744261, -0.015700399365708648, 0.06561673817173325, 0.01746276710382616], [0.020201485038410207, 0.08903657348320795, 0.008171043567379804, -0.0219001408155338, 0.0516451472910508, -0.034182592224807684, 0.002225481983897618, 0.03309205687580675, 0.015473511145850674, -0.008103830382316834, -0.024657618442408612, 0.04031542148963377, -0.012263899001218723, 0.02021106416019112, -0.04614847683146782, -0.03264947803069085, -0.0591119762971121, -0.04332108526693026, -0.01661718596640704, -0.005390077165797538, 0.018096073250689886, 0.012402992179295498, 0.03066968514976239, 0.0796599681486262, 0.04334476500547081, -0.014864181550331904, -0.01785634668394104, 0.054102793856968485, 0.0732911246543105, 0.04722932756900234, -0.05057446870993693, 0.02785990693742528, -0.029702100139132874, -0.028827354166332947, -0.06454692986180056, 0.002135820325359253, 0.021425337791390244, 0.01841899906952109, 0.047455803981973535, -0.04820108470276422, 0.005938460596822783, -0.01794063274543796, -0.027707096012427605, -0.009727617708661295, -0.048263133792224064, 0.011167228442820936, 0.026737998981550673, 0.011619987025135827, 0.020961944712886302, 0.017372333533504532, 0.0010772296849963286, 0.007921913053671861, -0.03902331766582642, -0.0008030404386634243, 0.04884017071499558, -0.02565618891419056, -0.04710104397897256, -0.03435092260455425, -0.04795835918444704, -0.01916973526331398, 0.048481616467403454, 0.0384738137814607, 0.014934219887143486, -0.002997153495863884, 0.004463612337323254, 0.02156188798486708, 0.06522548670328526, 0.02207758368423691, -0.007046898352087494, 0.016860580816662304, -0.004600903329844583, -0.04695680562858224, -0.0012680949489674452, -0.04799103444633942, -0.012137919031289992, -0.13886820535381272, -0.020868703564979437, -0.003868829523884352, 0.03131183090558979, 0.07023919631179039, 0.02582424983824236, -0.013554708360142293, 0.02956058152827755, -0.05246885933820425, 0.009778468820794937, -0.010819675541492749, 0.008995977197573545, 0.06093682404541233, -0.0645638100804487, -0.0040515175079788215, 0.007423884649428468, -0.05669696723257893, 0.002037716740167163, -0.010899374084010606, 0.025215532410215173, 0.03523441050131413, 0.08115115833377444, -0.021173256090346933, -0.05862030794428499, -0.03188518825388511, -0.004635491183247006, -0.0002021556479595014, 0.028622308803548453, 0.06988982426071917, -0.05554277436129279, -0.036083994739565146, 0.061473360604480755, -0.030545543854623984, -0.0385996574667011, 0.04007477670987206, -0.017360725022671972, -0.009806681350269781, -0.008749821395061896, 0.008411938468202356, 0.03741721449550182, 0.06565309775908529, 0.007280328280249151, -0.029010210454888972, -0.01498114498018556, 0.020868222163125467, 0.014574216274758585, -0.001506476106586708, -0.049662545480986336, 0.01359772100965593, 0.0861376454589097, -0.026195391408860107, -0.03249158143585406, -0.009272813842051947], [-0.04043844622987006, 0.004982949651301819, 0.005693464237898842, 0.0007774259726419883, 0.06535265510514156, -0.01976600865852049, 0.043953759446103226, -0.0377604500092364, 0.005072488704204142, 0.03432113302992169, 0.034138447387942604, 0.0018773796427553012, 0.0008117738494838247, -0.05488944741054692, 0.025091053156517395, -0.022774278272528214, -0.0062046029857143374, -0.031324759582983454, 0.015944029994441233, 0.06586314563834827, -0.07823968172536556, 0.04916620499349745, 0.01414517269240219, -0.018507996965207673, 0.013759879916614069, 0.024021186948936776, 0.0203883326517101, 0.034212938642748617, 0.018926897055912557, -0.00819091807859394, 0.014301145658248873, -0.020798875234799064, 0.06854742785596127, -0.029043554332582256, 0.03543381459511561, -0.034154662151389875, -0.017480498053951982, -0.0016240123274852832, 0.004504324796557105, 0.01451094282634558, 0.0016309175671596853, 0.040558663056066306, -0.03792684619935267, -0.005547788603667291, -0.010015634654022892, 0.011298941987428306, -0.06639807740588134, -0.012742786630074493, 0.03630342782510317, 0.0012333053286071505, 0.037560642457978306, -0.0014724667274109082, -0.011725736827148295, 0.021295253754803272, 0.02452063288287754, 0.018450575720329446, 0.07751564455139502, -0.029958500972372824, -0.021358881982321134, 0.035838497410235814, 0.028671841015889404, 0.057612022862833845, -0.02145277489724002, -0.0006011131121694802, 0.05192819272628803, -0.020678529469036557, -0.05797166355515621, 0.0021193438119517676, 0.01091587745898479, 0.05025740433308646, -0.0033727149208335008, 0.018984112837148355, -0.018055062068207978, 0.018868144202180144, 0.02258154597247518, -0.05700128939942937, 0.014077511442211407, 0.00045197561890632855, 0.011339598938534475, -0.07043332082128355, 0.006615541208549578, -0.012622656203901171, 0.04646772642453623, -0.005641023577347989, 0.02320684346719735, -0.006219148491891245, 0.02943799115145649, 0.0119452184221925, -0.0549378009857171, 0.05139750750581179, -0.02220141185413175, -0.10189628503302867, 0.004196645825493962, -0.003171098140507617, 0.050760560683858244, -0.02615886469998575, -0.07105325956369797, 0.0304160846642388, 0.03752181657847704, 0.01477640211756919, -0.004200451300596504, -0.015127445697006602, -0.031869662137378296, -0.021139119626103195, -0.00035164407312286515, 0.00903294850750825, -0.026424794345050896, 0.002158394138340601, -0.032167637812421074, 0.004416306107297019, -0.010773267241459236, 0.0334050001321605, -0.024859613056483296, -0.034635881501304734, 0.014296406788757276, -0.006493460510199064, -0.0579095535736802, 0.03584569430518138, 0.009529755692374813, -0.05928480870863845, -0.012244869045111602, -0.09110941198001479, 0.004200344739629688, -0.05267293169950309, -0.04192223425574673, -0.07097225901752686, -0.02369423103225493, -0.005280596398294511], [0.0008279445686224774, -0.025989177343964418, 0.047377978213805245, -0.009948463850596244, -0.008717549204830704, 0.007311804177567723, -0.08458307791055114, 0.021186312656856422, -0.050839418561393714, -0.022462515868494796, -0.000786881083037397, -0.02937262529645272, 0.07036663561836101, 0.040192467361111726, -0.03773425532724524, 0.006744890419900841, -0.036967160767538934, 0.049674835866935885, -0.02366136666088621, 0.0159965102961039, -0.013776968434873018, 0.09184799049467966, -0.014978674070997317, -0.10552595513622448, -0.04982120165279244, -0.0674091457574507, -0.07326290042976084, -0.0005280788912936412, -0.021301573491181787, -0.010000803616854877, -0.03344549798746203, 0.002233187285831365, -0.01717242988059938, 0.024858772499887754, -0.01933048403171914, 0.0025370825472888084, -0.013486449481510156, 0.049119620872418855, 0.03392966794225296, 0.05767649573739349, -0.013091063011186267, 0.02013262513222553, 0.0431758968325063, -0.0634313636068064, 0.05348350223671001, -0.015089361862531169, -0.008913646584882582, -0.024568361413220233, -0.01045572494841967, -0.025466916036417462, 0.013695468109266775, -0.022126482747665405, 0.03311255461873335, 0.00016021787667594962, -0.0019219924827481867, -0.016326337149250386, -0.017569248875338724, -0.06964248337202773, 0.03956763156895144, 0.004974485157877854, 0.01772174402038078, 0.010960674883220943, -0.016098527576036914, 0.03972598918632515, 0.02983358150477893, 0.028912471540510142, -0.03522048689221348, -0.014228734014965605, 0.00806306936151869, 0.030819551474389605, -0.05358469116158529, -0.01308907145138502, 0.02671692651015892, 0.023234616318383104, -0.013432720793585963, 0.008058648367573567, 0.03916899596541173, 0.046850347854367494, -0.0024918904727639843, 0.03447484597316568, 0.038100925497207984, 0.051350355398224225, -0.009122897582727985, -0.02982748956150217, 0.011002368480506257, 0.0025961061709513047, 0.04817206838866474, -0.03711420867225664, 0.005203832325682378, -0.02014539608662569, -0.04824815845943624, -0.011546675623621001, 0.0549516821044242, 0.0674781912254189, 0.07167236149612115, 0.002971766745791017, 0.029691761290668854, 0.012437831052090939, -0.028799748766811954, 0.007757679618700051, 0.035142588006411866, -0.044390751286700836, -0.016733342133016943, 0.010216316944952609, -0.044201880939708595, -0.059864191143272544, -0.007870930096715857, 0.00854995979712477, -0.049885020327330346, -0.03422242372662141, -0.042585690461841436, -0.0015239813157272284, -0.01515582188080714, -0.00041283126166832097, -0.043192428014621476, 0.06441322916437722, -0.05276487459800816, -0.028885692350234932, -0.014978442579336223, 0.009372916339676228, 0.016264703625707505, 0.08642509950150817, -0.031081561215541353, -0.032036658711530795, -0.04140757990099486, -0.025829260716419927, -0.012188923011611542, 0.017022467160108253], [-0.008712646576162136, -0.012620323064597747, 0.008735126220182245, -0.00494155599925621, -0.0368233974324845, 0.04473852732393443, -0.014148414802098469, -0.019967209366371193, 0.010980917971865496, 0.039339325885150225, -0.011327794544620797, -0.01017882539572785, -0.03786456461732188, 0.05327123402580329, 0.01203677683829121, 0.020826914286951003, -0.001346203561618686, 0.022058407716372075, -0.0933033820641654, -0.014983930875469561, -0.017119916133277385, -0.05667422530496975, 0.05100420312396587, 0.048194626569524765, -0.0485328121212059, 0.01747014989420761, 0.025415427528086156, 0.030910133724472186, 0.024461437297670297, 0.052701736042507746, 0.0018712142430173672, -0.008397417646185299, 0.028654639409992896, 0.0389288255738798, -0.015633313353135517, 0.034011266959726304, -0.005667430627212897, -0.04718726885590281, -0.04386642336018926, 0.04145660847981961, -0.0366236348106993, 0.052305797195412784, 0.052864702941078395, 0.0078047657195074605, 0.05271007122500151, -0.0016372127945357459, 0.05463213430565368, -0.003730860146302563, 0.0032004245440066677, -0.005328658111707006, -0.06032486653729577, -0.046768781466922996, -0.058826248241801014, -0.0437065195320375, 0.00787390623655534, 0.005300425132935025, -0.010394609353035936, -0.012159976253949066, -0.0028355873742162696, 0.0216961062252451, -0.00027893386081387817, -0.020989291831945506, -0.027376189307977587, -0.005182926050706245, 0.05414568353252519, -0.011305390031011872, 0.02024819671439474, -0.035154184440663164, 0.039851546461031125, -0.04341229173672772, -0.005079622286714903, 0.011253057415497567, 0.005425726929712331, 0.039143383584897676, 0.016828982886320107, -0.06623596906975403, -0.0237595969858476, 0.00851084478600128, -0.04628217522961163, -0.034420064164352074, 0.009726903022223314, -0.004834753793037188, -0.0037362095149325618, 0.07509042064422067, 0.009746045466274854, 0.04847778079366812, -0.006682598238689666, -0.024232626710844578, 0.027274728471049357, 0.02017068514104046, 0.059841715410759895, 0.07547406121345822, 0.11223915522557566, 0.020050949508403977, 0.0563948755674101, 0.04849582779613018, 0.0236450883615323, 0.05304578361220021, -0.04994444163689329, 0.0757100933298309, -0.031140395851420328, -0.039066783303377664, -0.04950911218571974, -0.0441218038147872, 0.01377557273909564, -0.04418628279222133, -0.022721223006684402, -0.00943885851080351, -0.05901449384559051, 0.014667837679349678, 0.015515642024128615, 0.07332703656116757, 0.06708299167779855, 0.05073982249208211, -0.015555015002214284, 0.010731095839660868, 0.004932868935408053, 0.017804032311251956, 0.0047109168126478335, -0.06825375707793972, 0.0018472014058466468, -0.009216686897007673, 0.014089055542942087, 0.02885183038039471, -0.03522108234875637, -0.012174748524239377, -0.06430242455645405, 0.02797537679402734], [0.03241938778838276, 0.006012876209889634, -0.005029562637919953, 0.04026677419137483, -0.0013808630474150974, -0.04188950403605756, 0.0700387189134915, -0.00388179206050756, -0.0020873407506903103, -0.0150621768791947, -0.05245058359542125, 0.0021350758623991666, 0.0033930338629923826, 0.03270863982084835, -0.0878289038624937, -0.009108776797008214, 0.058558107743497186, 0.024298229151702076, -0.010983001904700838, 0.006210832854123714, -0.04556655454548598, -0.06276140893432082, -0.005397033479102677, 0.005299554938565912, 0.05628631310033701, -0.0390294733150915, 0.04186536113595391, -0.01067168609177466, 0.05567478405788287, 0.032978167670405296, -0.0040618809175929525, -0.05146751035127124, -0.047301147929387895, 0.07379632509853185, -0.004018780004708626, 0.0313898709787008, -0.00991303864932748, 0.0035980477637391345, 0.0292229897325796, -0.0017144961934179993, 0.020685354271871417, -0.006874198610993452, 0.047189135227913036, -0.08306210648108273, 0.009343009706708746, -0.05481605057868619, -0.008219641427996843, 0.0013794209209053378, 0.003074430799645516, 0.022819146855312087, 0.0064281576078941745, 0.04894917926169487, -0.06193183770937945, 0.038803472744251236, 0.014382258768005354, 0.022230466517009807, 0.0006146812946084244, -0.09291453094716975, 0.017218417912436987, -0.0020854415975678255, 0.0046057396345469985, 0.00268009684073517, 0.06840549324992502, -0.04036203375030478, -0.04539137169645253, -0.05877427466293781, 0.007910310908900086, 0.010682102904710769, -0.036653562539969646, -0.019003265187532477, 0.005317162288818228, 0.005294929673532862, -0.02046704460705176, 0.0016003686471630246, 0.059247130502702826, -0.024550751677035455, 0.0627713262692796, -0.015684708412531705, -0.022230634254122753, -0.01957484890145078, 0.020194460210013195, 0.02945121361931873, 0.004947039948891487, 0.011768632441707165, 0.007654781038153457, -0.017679560171435904, 0.010656709030582067, 0.04356634175781606, -0.02225613908468653, 0.0038219347249440873, -0.04167247991842971, 0.05509106825385712, -0.05765399464385349, -0.021913554911372295, 0.01604820120824968, -0.03244181711866762, -0.07684407678587436, 0.0032830367958003428, 0.014215554234497219, -0.01808770257642834, -0.011658264872623114, -0.010820974447331617, -0.015840510206078906, 0.07067670411051619, 0.011141403335044585, 0.007816769580763142, -0.025424638162160177, -0.010084023018791747, 0.018889391288622888, -0.02262253755475658, 0.005164231402879549, -0.035364652356956724, 0.037398489921169696, 0.05592138608926564, -0.002653888210353617, -0.05932504728246335, 0.04742400010282245, 0.011320614271583658, 0.0030219713431651543, -0.03571819817085959, 0.03474007988600339, 0.03602935078898372, -0.01941750874832124, -0.020033913040339652, 0.03996521100450206, 0.04618053234848188, 0.05764520084037456, -0.009233222169821776], [0.012017018661641617, -0.006807085407834052, -0.02433299635649505, -0.007660621010638422, -0.019259006843301594, 0.050009355088274886, -0.026276965424880467, -0.015806891810797637, 0.02433119399816678, -0.013433071751876403, -0.07675890076770138, 0.01894304980371998, -0.08343675974253069, 0.060247070740767995, -0.010331017976974497, 0.04346428693156742, 0.030329158875416186, -1.2249075029134899e-05, 0.04814242500402237, 0.02364968046879444, -0.019626620949356504, 0.041856421892994426, 0.0273528043593073, 0.0004187622215630767, 0.013162997721053116, -0.05194328212014597, 0.02097552547745949, -0.005814345413353727, 0.0015233549979694321, -0.016298458692504004, -0.025764855007091317, 0.039322981935152844, 0.05600333620875732, 0.04861932552220448, 0.07817603502625838, -0.03100340791736274, -0.0675957551644904, 0.046304536685318726, -0.0021076131058620482, -0.022414726431274856, -0.010323587973385341, -0.002331841632474189, 0.01668592050318571, 0.08430890772484502, -0.0013197190863170876, 0.018957067323718536, 0.057754224960809106, -0.02001558985251812, -0.0337003420024941, 0.024400643234456912, -0.0462809164513891, 0.03241605506176192, 0.014128036571909185, 0.0037608022944753405, -0.045642352122506114, 0.00010167807139018994, -0.06176860073783953, -0.007098944594234533, -0.032613859089743236, 0.05728823720331437, -0.044955252057008586, -0.039219296368631286, 0.01964745814590362, 0.03705074381226854, 0.023384349940058384, 0.039886632459462563, 0.0864084552255953, 0.04786717411199284, 0.02364659887242446, 0.029450318619876195, -0.03650949957806102, -0.009407159644146451, -0.011672851914946264, -0.0004996405886470673, 0.019173453367820094, 0.01386235841109707, 0.002554772630609828, -0.009094206700197296, 0.002112415108947537, 0.02283451858326355, -0.00341483144906433, -0.03619337547950748, -0.014423837848247287, -0.012811676525779034, -0.023609983718489547, -0.005759695585046433, -0.09150946373485576, -0.042924575487867954, 0.038636979401248085, -0.03887708208264357, -0.04628274647938888, 0.02338562638044534, -0.01865428818976002, -0.041156397665870266, 0.020296554914498718, 0.0157481603238815, 0.008299357676587587, 0.0677626863684952, 0.030217081255250113, -0.013757359130424588, -0.011195329604303778, 0.04516029483083913, 0.04529144080737425, 0.02891652786795665, 0.008347284473851501, 0.0029420255825546773, 0.04830768765823291, -0.020637711209157843, -0.02482646219904149, -0.02630040476269567, 0.03385622181742407, 0.004170205289708296, -0.015842638867241406, -0.010882450012351677, 0.026738363660103615, -0.02391209549525458, -0.009968333392038953, 0.01592513943623072, -0.010229263347021678, 0.01696024021291039, -0.01575097190797874, -0.04798926018620582, -0.052693316906877716, 0.024406775232275704, 0.03970480202944844, 0.01997790059625491, -0.001444357850550579, 0.04588788467154466], [0.05361206782784423, -0.002215780710311329, 0.00993413048610557, 0.019474293434246753, -0.026538332925089482, -0.06200254028136478, -0.018429991415690017, -0.04761561334907817, -0.03157523440804955, -0.03329686769672086, -0.007506002845258876, 0.027803939808812312, -0.01081401795417218, -0.03133424885503802, 0.03254741217413684, -0.05794477060865578, 0.029021500369462765, -0.01815387000757673, -0.025591109063669737, -0.04462200811742326, 0.022790959408476922, -0.024381149870410183, -0.01736491874319533, 0.028729891509949312, -0.001593842365296257, -0.026012288690542184, 0.05766513270079239, 0.05573693674770821, -0.010419064417169511, -0.05187219304459263, -0.021696416936833243, 0.02998671420246699, 0.015044837877143197, -0.010069814304384157, -0.03812331675296692, 0.021271135304664127, 0.013616898582381664, 0.053847959023568925, 0.008668306578109998, 0.04744491551848479, -0.024477846762125877, -0.030812123820641094, -0.047398745698718346, -0.05400206291745474, 0.014919552111746634, 0.003721412768021425, -0.01177594038147843, -0.02202020440718264, 0.013346908445462984, 0.0011705656279237147, -0.0268492811005819, 0.04109173403149399, 0.026397671082589197, 0.012884174925835367, 9.172246445780217e-05, 0.016499426044425673, -0.03301718962940174, 0.06548621554520828, -0.04631818260096113, -0.010275927867322848, 0.04714854985200876, -0.05048895270392229, 0.006918619165962992, -0.0029438769413373837, 0.03451220815018107, 0.05610731973849391, 0.03971255374945858, 0.009641184571107348, -0.052727944530036874, -0.01006548914729126, -0.026241407689161764, -0.04772601001836019, 0.010015744457816809, -0.053283797959477214, 0.007598900850804722, 0.02384797102138836, 0.009474789420382065, -0.0470389417019524, 0.038397084553964574, 0.022392847053951715, 0.05723800291695488, 0.03095035461816215, 0.04164911842053728, -0.05122779775563095, -0.030704501816375823, -0.01011113467302684, 0.013851244916132068, -0.009221570440607344, -0.030084262141396843, 0.06463224352489931, -0.09994161672833539, 0.04275320654271744, 0.011584754615319201, 0.019064185400548838, 0.0068509177336490935, 0.009508271636688208, 0.02757600004856706, 0.0007342437144603788, -0.02253701965983923, 0.021324370054678462, 0.05824008006810961, -0.0006991508623684623, 0.026009804334592327, 0.012875980971903882, 0.07123349030941695, -0.023274641271257713, -0.0036550923446785066, 0.0011555802730270008, -0.002959392650353174, -0.008576685232721893, -0.020189640556367714, -0.019665785091851, -0.035256251241919924, -0.042045318782202544, 0.026849956605300332, -0.01547620086462226, 0.0257680965374295, 0.059751090765945813, -0.02453787294028597, -0.052368895159955214, 0.0033993553046849415, 0.0024051031727346907, 0.008370883543805238, -0.06458525323357733, -0.056071639548995966, -0.0040330067448954895, 0.020252727127980718, 0.028969400541099477], [0.010838285296190554, -0.0048430352020094975, -0.04190587803493482, -0.022970953826517947, 0.025286832348761345, 0.09793295704996359, -0.0657243436537124, -0.05927527587730139, -0.027360079261891622, -0.01695027228865814, 0.0038052450341346184, 0.06367680004244229, -0.017616914844409422, -0.053951404919585014, 0.016033966436666908, -0.008113003684012191, 0.0007640833371893902, -0.030671682093631056, -0.01794263862507004, -0.01306134930344286, 0.0038404391277854226, 0.019787778340281722, -0.009382021440483945, 0.005967159769097793, -0.031088889396135504, -0.0471961801365549, -0.06635661399846765, -0.04763860096282016, -0.010285533189556799, -0.01480879836671791, 0.019628911560124924, 0.00954916960756449, 0.015198423232960081, -0.02299366176775882, -0.052789678201506936, 0.06504865142532423, -0.07657293453572818, -0.025630393605890287, 0.04613023843487407, -0.07255433291473197, -0.009027485095122578, -0.046833401426759916, 0.03881543307105365, 0.031150995274898313, 0.0047442906236532, 0.011373876912467095, 0.017660950391762183, -0.008475016682280796, -0.00864624815203083, -0.029229707560503804, -0.018490237166687417, 0.0972067628374786, 0.0025273332177156893, 0.059576409611047244, -0.04256333470765026, -0.045795394097428624, 0.06910084220840795, 0.002673530346347577, -0.01226624477150314, -0.03488857733699632, -0.022546621803067192, -0.0004988472327799631, 0.026645512323347824, 0.0036222943813496865, 0.038551245817999236, -0.0010724025863529624, 0.04929493777523694, -0.03599143336579715, -0.026626030079222467, 0.003462820245790725, -0.021857012119740362, -0.0053566895193861664, 0.010048693807577827, -0.02258450833895449, 0.01968076786394364, -0.004755510307683953, -0.018153572879954973, -0.0039045661061530277, 0.012255825621585194, -0.03814631968988305, -0.07527463839482419, 0.02060991965375969, -0.04564956788505878, 0.014534595595972161, 0.03833621558383117, -0.029419679636006862, -0.01103933509385001, 0.008721597919521649, 0.07094964521556862, 0.03585382054829075, -0.011761900779338742, 0.044979291462478276, -0.008719630889038417, -0.017079353738639325, -0.014721419157874688, 0.0065489402177700525, -0.060111063448814304, 0.0012235054515332374, 0.003606793088890811, 0.03379357225747803, 0.02802777496032589, 0.030078485958595816, -0.03565475788180532, -0.023086274516398792, -0.06419584098024324, -0.005861901583214281, 0.03396482014325048, -0.033296450839106345, 0.023091783183812387, 0.020271537418353486, 0.06035030854403601, 0.08332897873415095, -0.0075066401499919765, 0.011538124532608298, -0.004158810383810674, -0.014979325395337719, -0.042801469480173465, 0.015270576707390142, 0.02235749277384349, 1.4225631620699604e-05, -0.005972146322756713, -0.00840736689733068, -0.039617648680235394, -0.017776737567655614, 0.007759403479309954, 0.010022736189251388, 0.008136568419437454, -0.0035732161201287287], [-0.01887038372565514, -0.024599374703889076, 0.004911188225365563, -0.059176730919242214, -0.03454390301099224, -0.00905182005278846, -0.03139601056898784, 0.02210939480091505, 0.01429205324596439, 0.03672722217769294, 0.002977409378731554, 0.04759918579398705, -0.003714010458994661, -0.010078561572540218, -0.02638147237638876, 0.055639192774978995, 0.013475376474693797, -0.018010468934767977, -0.0344583433811721, 0.06989755154901028, -0.036209641472616495, -0.07202122925037853, 0.008329245965752444, -0.03730470752711153, 0.005100585911137336, -0.000519312808238064, 0.01731495965509122, -0.0458444082971999, 0.023571715830421437, -0.011503292822613045, 0.0036002246470153965, 0.0004111584317394257, 0.019627429876835346, 0.03310545274928404, -0.02026066236197932, -0.004936983651610715, -0.00909033852148646, 0.030448559985645395, -0.0017659122390116851, 0.06573639937954799, 0.030558992013739673, 0.0361075392007228, 0.10895727921804628, -0.00464389189068343, 0.016926650046705, -0.01763029574468512, -0.04476786385882718, 0.07292350531932788, -0.07215223151606671, -0.044069004596349715, -0.01832770328135442, 0.01303683686899511, -0.015385512973230774, 0.004410082239142355, -0.06672638039771198, -0.026830954569824362, -0.029098294221288932, -0.0070562837193234255, -0.024282161345905454, 0.005764448449101825, -0.016760034890098557, 0.03640970141174132, 0.03559686421904067, 0.0002757149913831589, 0.02478278973327296, -0.011502784963029927, -0.03658866946367069, 0.0729215335444735, 0.0032230422113663634, -0.05047001088451827, 0.01912968912300528, 0.015514448808772698, 0.0192986255701538, 0.010794709215824946, 0.0026421299441031438, -0.011983485945610849, 0.040186123294966715, 0.013562467991044828, -0.0360113481388086, -0.037828962378462616, -0.009108711702540406, 0.02356300767193254, -0.034184136095670475, -0.017599913024116495, -0.01428098710442994, -0.06235334581050271, -0.0009322098388402952, 0.004119263810684663, -0.019706374727836193, -0.06326457902319593, -0.03332534843340111, -0.024444802924615348, 0.07093506104126862, 0.018827089186180226, 0.02483602571751216, -0.002150072854246535, 0.033798982999707246, 0.029258908272809945, 0.0020867757279401464, 0.004698054776649858, -0.032797521288690394, -0.019395881414876144, 0.0070831166210051045, 0.01048440387761651, 0.007162390250058025, 0.044584771035237114, 0.00797917529327263, -0.03535792279556218, -0.014517626512959715, 0.028926022881139133, -0.005568166451369103, 0.04043609967598045, 0.13089582754461654, 0.018485419270615953, 0.011659583520852468, 0.003424591522569036, 0.009669939781329967, 0.050233395623332795, -0.017935315044391595, 0.013087951127814978, 0.03079205985051166, 0.03522026100330862, -0.01824440697507474, 0.0004064666727580131, -0.033390850841505726, -0.00043292980275408204, -0.03276593359207159, 0.029654228038732036], [0.012976594352661483, -0.014048325621861361, -0.036372172889238455, -0.00083292772354053, -0.01270671171693181, 0.014915383356640662, -0.009830302545843378, 0.010611841732177541, 0.015473515073836732, -0.018954495258689072, -0.00027260011344143974, 0.006720421887872566, -0.006579066945496143, 0.0023577830385654096, -0.03198679143590664, -0.016796894267796767, 0.05144933798511106, 0.008545123148375489, -0.018303077522376823, -0.024514921594745928, -0.010402890524853815, 0.01350178089850057, -0.04119514316235869, -0.004285032432332103, -0.03200963667832101, -0.03727024967083184, -0.012788874440625772, 0.004382923998822025, 0.0038801029104541303, -0.06698017904064398, 0.010286019650072106, 0.00043250189989784495, -0.001878772695910987, 0.007458850766069773, -0.07212976519475854, 0.02982857599354396, -0.04755197122638973, -0.03183945138548692, -0.022418902280501283, -0.03287056925160602, 0.017333276409226318, -0.02225374749197406, -0.04650928173697803, 0.042492273065270154, 0.035269613455194054, 0.07354697307087484, 0.004843378676671888, -0.01978330514946725, 0.010130848966421508, 0.020401966689681198, -0.015086357770263153, -0.03611654426770699, 0.003536851135688389, 0.010354655629742195, -0.06390658197759247, -0.012064836999257231, 0.03906863717002578, -0.057976069262611646, 0.0001639327615593758, -0.026780878198738218, -0.021302733040536495, 0.07624507428881577, -0.024618865533605292, 0.049937159049029435, -0.04055772480785031, -0.013494001501887594, 0.06597925898897324, -0.021731337144842173, 0.029797407879906767, 0.06208919060770061, -0.00803682395927508, 0.0055133196318359395, -0.0003052877654663117, 0.021529702504081604, -0.010405393135557736, 0.03368485956810525, 0.03407158166902599, -0.01601648828877543, -0.05569745279832297, 0.02602867628949303, -0.019298463663496062, -0.0016033656229201456, 0.024224951469040263, -0.03947731944090683, 0.0021121272151221086, 0.006245292464421971, -0.018351850925443797, -0.04698308704666697, -0.02759263064764166, -0.04754926230960895, -0.031061136045512854, -0.0048712438436736, 0.06421487931880514, -0.038120780397356224, -0.014028183555046805, -0.05240041110588789, -0.013776738078358858, 0.0016321613224540732, -0.01736616319236629, 0.015782273131888937, -0.011130939704266466, -0.00442517424254359, -0.020497096798408027, -0.017609006448990095, -0.024867595834465267, 0.0035865206152593974, -0.06329303826673155, -0.023195042725711216, -0.014460323384812436, 0.04733856300630631, -0.0003099862988223825, 0.04797869185412515, 0.000480676822524263, -0.024999523669202706, 0.037749066041956825, -0.0037405108264672807, -0.00683245541888724, 0.030830733945135497, -0.08091752195623204, 0.03238821748754828, -0.013417185889052788, -0.00221065653795542, 0.013431372420543729, 0.041568244879019, -0.007259749891233931, 0.012048348597372258, 0.01543369756811113, -0.003388832039702372], [0.009251065335750111, 0.06493706719292054, -0.04802539395896559, -0.018974503626920585, 0.013458854047216938, 0.10016184368044623, -0.08060899367283007, 0.08181401353043187, 0.034396725181188324, 0.025103134007930288, -0.0011334090544040884, -0.042634403974957, -0.014437987306860803, -0.0214003001414835, 0.029795686859121095, 0.024337911640983204, 0.026832649865384105, 0.061016282700855386, 0.020914544946356525, 0.05394720420504836, 0.0386170646208603, 0.012514852745720572, -0.014725057250198674, -0.016062260088499092, 0.036602813296274204, 0.03768627676067999, 0.007316312695314329, 0.00487884070682983, -0.03578042855847525, -0.0020827129053921857, -0.0032009711878562015, -0.031818177773343455, 0.03339166080756965, 0.01921159339227424, -0.0387824004824119, -0.025279495861689816, 0.01665565437257332, 0.07298798003134337, 0.01219003381648293, -0.04644386673640307, -0.030231011791263702, -0.008755642890503647, 0.037174448102822964, -0.041437235546767884, 0.1051536209494528, -0.025514993023123052, -0.004871607070122907, -0.030388959646700776, -0.0014823852960439486, 0.030969427617813242, 0.03747489721673988, -0.016891458229645, -0.029894367474885393, 0.022934993992861877, -0.04394353118174483, -0.011943026609725842, -0.014507802784707483, -0.06207816083715678, -0.008566557501910117, 0.00045045490522376116, -0.030795828405092273, -0.016591945947036123, 0.0018453024679648434, -0.007372020256509812, -0.08617892098561224, 0.025764041488589656, 0.0030608644790484866, 0.039838520553721814, -0.013338419767517307, -0.011205752691546802, 0.07060172118807079, -0.0413360750966679, -0.02720757768945052, -0.006777293700768451, 0.01358558884792806, 0.01716293015176541, 0.0801127169707077, 0.0326888495093172, -0.022592802591944756, -0.03971842176725461, 0.024972501277184353, 0.03142542521163397, 0.015535818068781473, 0.003965996077149047, 0.01223508039422379, -0.013976563604203865, -0.027153530924680844, 0.013779877297942635, 0.0029039835156010035, -0.037078211512652795, -0.03671627387784371, 0.018280993989488473, 0.014210551511141043, -0.018037798258423887, -0.014860856894707614, -0.014350048400025912, -0.13412537212679057, 0.009640889589565002, 0.05543574378617346, 0.0062708672901766625, 0.06717004409465754, 0.014824800666234088, 0.02695173128941281, -0.024193098826377966, -0.04303934270947227, 0.02586132571627484, -0.03836594987109111, -0.06974475109385399, 0.021644600595007366, 0.01815328416777419, -0.01952468707608648, 0.012894722377150763, -0.042506731608669544, 0.023876870454709848, -0.03851394187621609, 0.020995450462431352, 0.025896696182959398, 0.08604720605146614, 0.033190660506572295, 0.04071090636814457, -0.03987735461187172, -0.05841788342521412, -0.010691460609946322, 0.023210755288684708, 0.033783405115303144, -0.00464526314016118, -0.048116003204842245, -0.025575642932384655], [-0.03768056218468834, -0.10738611575580229, 0.02662245608260128, -0.09511944728995674, -0.00315094550733468, -0.0017902768910818443, 0.021134012181000004, 0.005803662484593688, -0.028633358941032687, -0.04667538808879111, -0.026765653154785678, 0.04148631487647808, 0.07154876926871319, 0.04881458357389729, -0.027783225176104712, 0.023252116094152557, -0.031147832890796, 0.028671495403870227, 0.004055875846989682, 0.014496721708227897, -0.02444206326861838, 0.04783506791252024, 0.08604002768892509, -0.02578460112934969, -0.060396394101736486, 0.017243014637251405, -0.028180807816061477, -0.01746600371136463, -0.02721597691403772, -0.06846767865615992, -0.06052607772637929, -0.04952496325535078, 0.00939803935752638, -0.0022184498276868075, -0.04217561398707771, 0.0030077504456535705, -0.02435494702993872, 0.08046093698068463, -0.02517287987275203, -0.031088902358227744, 0.019945938610859377, -0.027643570806558895, -0.048139479956868646, -0.012323730749055264, -0.03912107724870554, -0.06855783610045643, -0.00015454382061419288, -0.04862054547687726, -0.010731836058106944, -0.030126481601760822, -0.013924353505394527, 0.043228890825302305, -0.0012593603661749065, -0.02582707017035596, 0.018389083223269296, -0.01754043195441304, 0.04712777371397654, -0.00945630043019638, -0.011504044971231052, -0.021013841826868798, 0.026641458038865702, 0.030463994008708466, -0.0035164262316591246, -0.03333096485545052, -0.02322303524211241, 0.013909496057679677, -0.02175845541510869, 0.026502066950225677, 0.03681654640955831, -0.05225683149880478, 0.05566808609285068, 0.01886352485202859, -0.027976018070695864, 0.01936806692346907, 0.02402879211371996, 0.07873775409127083, -0.07345348332943603, -0.09383420140434419, 0.005167456376490877, 0.008203855997889777, 0.017370723888759616, -0.014483183235868145, -0.0019524036358499952, 0.03178095498557809, -0.07422500882773352, -0.02448770217111957, -0.019842813906447737, 0.01902131878885655, -0.017697275069083834, -0.07218869651437905, -0.015400718333619931, -0.03706435621611623, -0.04170761243770447, 0.03938097541773545, 0.002788108351874832, -0.04226632439706925, 0.03876135275227994, -0.005299483531080628, 0.021522450946659655, 0.0709743656429436, 0.0018032406704480057, 0.029492507197232246, 0.004193753253144452, 0.034441577592878726, -0.04802200635222172, 0.07640925239482327, -0.057699116750294134, -0.006085296978241968, -0.035283107851093704, -0.041555979453881856, 0.014029612324770043, -0.047024970618086435, -0.0016768903343614505, 0.08050120008978272, -0.005734128525776287, -0.05067853614219284, 0.02629896447259229, 0.06801884235460694, -0.0038581035370666484, 0.032374681938653976, -0.030492013307846053, -0.07887562916183272, 0.04389378720960572, -0.011278173522472795, -0.0009001017333094358, -0.01388258684233323, 0.02632994328892513, 0.06307840037571996], [-0.03760382035313608, -0.030961331717085434, 0.01908677596359121, -0.008938636485601488, 0.09800909874722534, 0.046184274226113736, 0.0348383766215809, -0.024026016032141946, 0.002946189304515895, -0.021341115272016226, 0.029286651845364768, 0.007095862887739597, 0.012273045766703192, 0.011606880610005813, -0.0026320196374857653, 0.011442736539893788, 0.025270646501907478, 0.015510580670633796, -0.012001392137199121, 0.007581100344001779, -0.01598356459412611, -0.029617114266082493, -0.013035522861183662, -0.0983785392009715, -0.015180606555977045, -0.007833323642247161, -0.02616454551253162, -0.06553634074379007, -0.010663501212110583, -0.055266416334634284, 0.011529204267209003, 0.023478906342933, -0.023212964540648535, 0.005725218505029543, 0.06187833027709807, -0.022010736048688972, -0.03551227498211391, 0.05439206550632317, -0.027550482253579152, -0.07426745416649286, -0.04841253543848881, -0.043305941694324335, -0.00632990814212809, 0.0216917664247474, 0.03070863193959948, -0.019441083139456392, -0.018567470004042214, -0.003970109679069758, -0.0611473070263047, -0.014672171557040613, 0.006591360192444393, -0.014377179393051878, -0.008941925315898392, 0.02493296771980697, 0.007286455890707675, -0.030664357607380854, -0.049064510848161144, -0.04004318523937194, -0.003994984122768045, 0.10398221768117077, -0.053049164166789155, -0.0385871345656976, 0.02308608339879257, 0.022132167746030582, 0.04204582425054438, 0.011235800301597378, -0.050215479562435855, 0.02134106496259924, 0.0544485951862721, 0.05719344899780095, -0.015044982751025922, -0.004257342534341666, 0.02237530124554486, 0.026531532877024804, 0.012389027910275494, 0.03736889497288011, -0.05202971008730776, 0.03892464392236895, 0.006184293681734688, 0.018325656939775982, -0.07117900716622134, 0.006324295951044489, 0.04720162787153679, 0.05678625904937682, 0.008019810423928886, -0.047133940029996886, 0.02095122345225989, -0.04613468287784124, -0.038206792657406806, 0.02431339923310311, 0.014366582627588248, -0.055316720425728064, -0.0631200213410273, -0.018125845033359306, -0.0494905544933292, 0.01198226091898501, 0.01147531653257131, -0.02415682048234987, -0.03575374674711835, -0.039975851969831125, 0.007019747663974044, -0.00199548220758476, 0.012716455657274705, 0.003918491897386195, 0.022378871634390136, 0.05178573649528341, 0.025125497246797707, 0.007654375373139583, -0.03448152460797201, 0.007284146309028857, 0.05606432026502985, 0.06645042280759504, 0.04082792626857565, -0.020423341794580722, 0.0130070413922226, -0.07608485276272485, -0.06021530899318264, 0.002345513737557076, -0.03809064061362394, -0.027966905369805034, -0.0065520143071533974, 0.03989564132694536, 0.02679973455078379, -0.04971801793792589, 0.03385385149846204, -0.0301939694124816, 0.07923186560890652, 0.019909072860020856], [0.035830531669847177, -0.010865417513569375, 0.013256085817074012, -0.07878453822511301, 0.000666073188543807, 0.027542626611408303, -0.08571723190169611, 0.07946329973096668, -0.00822066524937972, -0.05186606644593981, -0.012589646806836144, -0.04685025439944926, -0.03281005507878034, 0.022221711713251283, 0.025960619157072873, -0.03996055493419903, 0.026137866942367482, -0.03512036810940374, -0.005265472169499598, 0.028886262678484025, -0.03602087578876307, -0.020499086951623766, 0.026265080530507495, -0.019638748819805808, -0.0006958779467755042, -0.0547261905989914, -0.040157397048130705, -0.011297272600450815, -0.04376093625084535, -0.036170542857196834, -0.025877293622212347, -0.02725337697688786, 0.01996982283000003, 0.04780814678050403, -0.09351885471113786, 0.020689814915331117, -0.024171760050453312, 1.6125451217539727e-06, 0.0026245883503889646, -0.03499488232597634, -0.020701436176920676, -0.0005135302935414452, 0.01187492968941781, -0.032486351749101285, 0.06677985237088518, 0.02943427823089449, -0.030057666289869476, 0.016976687110648606, 0.02744879220204986, 0.007034916142333318, -0.041954848830132986, -0.005300762106860961, 0.0011773434550596202, 0.06636793152311578, 0.026259805715937754, 0.07282664030115528, 0.03821888426680516, -0.07837585620902009, 0.0160216572603728, -0.020841905898423763, 0.009384611070916397, 0.0608641293787271, -0.034918591381124846, -0.0500983844829108, 0.04646486993209694, 0.04376513754722597, 0.04391699078203209, -0.023772693071961427, -0.05519076635409624, 0.04047565043658454, 0.004204274642012159, -0.018097424374155204, -0.021001267141983332, -0.0010719016809588623, -0.00472546132880932, 0.010425839519590153, -0.03321403770954796, 0.0475098588950687, 0.02988603986826515, -0.054130026279133645, 0.014463178446432832, 0.033021677485776585, -0.007756281489099245, 0.008170156916402866, -0.028681580840196452, -0.013600807466442025, -0.007868091085270146, -0.010605028579768517, 0.010927832339191873, 0.025648480406145854, -0.007833535173116944, 0.010972838776847281, 0.012650689832412569, 0.023243037061014698, 0.008333685559576838, -0.0013585987245519756, 0.020794640381959918, -0.027408512863436155, -0.04431468753202129, 0.025395473906418668, 0.004313358549622957, 0.013853969282102908, -0.06145861610991983, -0.02358311510851713, 0.030867408952522477, 0.007285324933794298, 0.05161115937171133, 0.03986218003419179, -0.051496791142029, -0.0016123203140173926, 0.012465705486137714, -0.028367421386094226, -0.023082826485167865, 0.04049438136722643, -0.002322256439238402, -0.01155599870042015, -0.00039478774540073496, -0.005204506620316363, -0.013505550488730204, 0.043811547476761394, -0.0028642444099814895, 0.030545440207878517, 0.04152390378367468, 0.05243178284786273, -0.01718279309671586, 0.008894199978925056, -0.02421336634175904, 0.022704835907279706], [0.033645041674732694, -0.020461789185164093, 0.011793624496425953, 0.0232339604083523, 0.027771081485250086, -0.005014866366332297, 0.06217296265811953, -0.013019393228013433, -0.027626706600266632, -0.020261192214774404, 0.039887050483745905, 0.009151692142024189, -0.06161967449256055, -0.019489373477303548, 0.06576607025729492, -0.033013421216294976, -0.010486721377944342, -0.07883793462234424, 0.015536780166410257, -0.01584433844173003, -0.016389745298386015, -0.09425888957204955, -0.011260187646407748, 0.04221082442456928, -0.0203337366042992, -0.004749605057848111, -0.009049195889740558, -0.00928705083766174, 0.042037184277262454, -0.056075535725927626, 0.02507447462910126, -0.05801438954735683, 0.05626940564091127, -0.0029714937580369517, 0.010735207958773361, -0.08214686865469789, 0.01037901521026227, 0.010945235826317817, -0.02505676839305557, -0.09990032888331599, 0.013493600021904105, -0.1110079451384179, 0.01465041641796583, -0.07284109571169554, -0.038150691282717475, 0.013919048872948009, 0.05453364443480495, 0.00688615760727407, -0.04729287137877527, -0.029782581631215655, 0.04249525957038898, 0.020555765564451083, -0.021209114163476126, -0.013502531575539527, -0.013740458753601137, -0.04657540305207718, -0.03214759822974391, -0.017052378688342983, 0.055165468882592446, 0.01897894745660726, 0.026819669983601947, 0.049526850091142514, 0.02566844190864759, 0.04819036007678049, 0.04010399192847441, 0.02200313689676206, 0.04820085687533212, -0.02103199607460047, 0.03593112614714721, -0.04069496044432786, 0.010886127483959215, 0.017088441059162757, 0.041992698963969295, 0.058936566379387934, 0.017861847298170728, 0.015019343628125272, 0.020433211207813884, 0.01487128435177498, -0.07360434544652172, -8.67264173262996e-05, 0.012838169705661642, 0.02683598141743299, -0.049073770422180606, -0.06060185360527512, -0.03143250872146051, 0.036210016905538385, -0.06246657634296282, 0.0020611066700907082, -0.02311879149163265, -0.03572434667852429, 0.07240582852499902, 0.030251274923423985, 0.04882971981181137, -0.027194279679501582, 0.02665020561707159, -0.03581898579638701, 0.046086862145624255, 0.05218650863622948, 0.06291768849447754, 0.010858778253637855, 0.040384859550914705, 0.0622339160100636, 0.03759450363899961, -0.0024480524418085056, 0.034442830007057286, 0.014384965502969891, -0.019185632406917844, 0.010192066945704984, -0.005033380066248321, 0.027955912710059958, -0.003788596375068914, -0.023317010999538097, 0.028172282145944347, -0.010500567916078483, 0.025330877234998096, -0.029194269478335044, -0.013294411211602814, 0.07673780257804934, -0.0007142160676712543, -0.02091807424404203, -0.005318747369305772, 0.03154060069029102, 0.04904482204812144, -0.046259063086932596, 0.0029802906410382477, -0.04280085800384533, 0.03488196671783242, 0.08184472123954648], [0.060214102612256105, 0.027014542849685574, -0.027090744451747008, -0.00848242016187707, -0.03457813635347892, -0.028267105261273018, -0.028900027827204997, 0.00846710567107161, -0.0096952779543041, 0.059876379578501955, -0.05601430002984378, 0.016818047082874956, 0.015036206935232896, -0.02551637757253576, 0.009465357705153396, 0.07289710499288596, 0.0493847505593398, 0.06787003444415025, -0.016485768720470605, -0.06518531198573296, -0.013388758581780494, 0.007734976149476405, 0.014862996271985543, -0.005847935484283769, 0.016146431929405167, 0.020044447024678603, 0.07434791142234976, 0.031400765600111846, -0.014799261186960158, 0.03573307834297306, 0.013161347684984039, 0.0024974488599161064, -0.040085118085974425, 0.013548209743315333, 0.017220270320683125, -0.00043935507176188864, -0.00023564645490627354, -0.01027102338254199, -0.031030501388138527, 0.04251609136913434, 0.07152421913984446, 0.0911641749354537, -0.023564998900613233, 0.037012839118826794, -0.033112549592172295, -0.050146201653805796, -0.015716368518467708, 0.018079621493306424, 0.016423817513991256, -0.05897719511916747, 0.008462071791448372, 0.023557429500338484, -0.05102955497883098, 0.04651697829154501, 0.010318400946722919, -0.0006713676802008108, 0.026773154041128473, 0.0012780040856681392, -0.017925821233961282, -0.011109100931865575, -0.002378880117086233, -0.01953073696545297, -0.02484452216833873, 0.005670541958928252, 0.032607185470687826, 0.021072112326785852, -0.09482456214287129, 0.03426315868732701, 0.006042228710968857, -0.08110387874891517, -0.026009750917072964, 0.03061981694874897, -0.04042805091323062, 0.04143022349208241, 0.0009136421369970094, 0.03373072537844685, -0.05081403094348046, 0.023187337995407207, 0.035928636924199175, 0.05216008927862704, 0.03808247467147461, -0.0039834695711037016, 0.03275302730097248, -0.020086202033278964, 0.007514930661139831, 0.0915291028143353, -0.026724194748864137, -0.01580359807327183, -0.05667652455388149, 0.013622691607785472, -0.03576703658917098, 0.012565567577895412, 0.039456594097941944, 0.025818967279196955, 0.03341105160163276, -0.005963408484487888, 0.03921752955028648, -0.009143721176945433, -0.036924377292973105, -0.015945325671619878, -0.009439291346810194, 0.022548054056245454, 0.05945312981160611, -0.01917918694095372, -0.024351962886905665, -0.03706920890753953, 0.0039187771064626885, -0.00537023610041689, -0.03327374579855887, 0.05637431519959198, -0.01383065405783418, -0.05938042726286819, -0.01790242180126292, 0.022123007111778694, 0.013932905962174684, -0.011466217645663317, -0.02204109512584503, -0.06540404590061816, -0.05627632295452751, 0.029333056381152012, 0.0037075736816574736, 0.028746839883364166, 0.0035376345561840454, 0.010619270698196088, -0.029376584220249875, 0.06667123021830579, 0.017646275151024304, -0.014397550579016764], [0.00958585383393654, 0.04608450376414475, -0.03281341828754614, -0.02803316285014403, 0.02474880852963681, -0.027258977648261552, -0.03380063778540444, -0.02575490671332037, -0.04618321622003548, -0.005427982819283134, 0.05374996596799455, -0.02577526528062753, 0.020535135659535884, 0.022700593330121935, 0.0032798578586929394, 0.03300068191133589, -0.05187914251140572, 0.04295058056074549, 0.002659878608228514, -0.013201643795483125, 0.016565497918406082, 0.015929897951119636, -0.031509155054798364, -0.005770255174852607, 0.051954320560982065, 0.023884348131753746, 0.055988709904697044, 0.02155345795558698, -0.023899901562599347, 0.027805923346483023, 0.009047098631434781, -0.004734208029529467, 0.04458590536488826, 0.029481324462359383, 0.0109644044718247, 0.024789950983138676, 0.021941905193861373, 0.02611324257523785, -0.02040075804475633, 0.03448135426582407, -0.0686565332576552, 0.030473101300540525, -0.04669234055748354, -0.038759944975619964, 0.029760350366023793, 0.0013390371114636393, 0.045018537166732465, -0.0589417200071032, 0.016800687628926652, 0.02898760096117617, 0.00023840936507607747, -0.01095766783432111, 0.06309194653077803, 0.028093777181172036, 0.02110089267610929, -0.042232268544118684, -0.029267593283411924, 0.051372238350297056, -0.06209624186789029, -0.02236081697135734, -0.0330339939111733, 0.03564680920425407, 0.01741847937741596, 0.04437641004219914, 0.019277427272624204, -0.029807550027417598, -0.011114232808577224, -0.013020404671962204, 0.043506003183623555, -0.021715891656946346, -0.004297973526357006, -0.06405014750834014, -0.03802044615058367, -0.016071761006427224, -0.031910950895686525, -0.0006698499835038324, -0.0507652316633402, -0.06523554831159394, 0.03162321468499058, 0.06508543459565219, -0.015092154376308772, 0.044326223233542045, 0.0030022618704853396, -0.02421535794248475, 0.024160732622155755, 0.03756904504024621, -0.008261021362699782, -0.003499623739309193, -0.006289191882579521, 0.027040205296651396, 0.001302388095230719, -0.05644032524410515, 0.021558011411125826, 0.04361482678364776, 0.008066979930633295, -0.04337041440106632, -0.03351281165475329, 0.01758824790945864, -0.02370415771449381, -0.024394571221481635, -0.014833297491870245, 0.038817765578288546, -0.019732757334792995, 0.008708072297564675, 0.013160847555613284, 0.05135094524891326, -0.05715747673863686, 0.031196268184850336, 0.008887186344763503, -0.028101420675027404, -0.04369562715748723, 0.006589620088068135, 0.054701699209730247, -0.03853755979976262, -0.00896449937272419, -0.0202174291826111, 0.07976236220454709, -0.021745546683759078, 0.06542769002351125, 0.07334043308038068, 0.0391029986036038, 0.004873584135918651, 0.05077940218038424, -0.014093960539013399, 0.028396808709134448, 0.014960719933998903, 0.01937508950888861, -0.01206954091032754], [0.021937388035550624, -0.02288601181637601, 0.06193309993672915, -0.018260094270987296, -0.02186468102348694, 0.04670800674258557, 0.0305939844775163, -0.011774942447413828, -0.016111372517896908, 0.026099862572126663, 0.018420570828506466, -0.01997197667379833, 0.03429599361506988, 0.030301427734847907, -0.015835661153230707, 0.002245524788904755, 0.033565204480455996, 0.03736402476219617, -0.026633585933267194, -0.0555512583879406, -0.007681760290235286, 0.017154913111872252, 0.03568361353155037, -0.013382838327060241, 0.02301950665297035, -0.01142393140548881, 0.010212811439717187, -0.020862255010737026, 0.028696715388025526, 0.02387473050089206, -0.05830973205002166, -0.05676763032260136, -0.03133562925310624, -0.04667468257618274, 0.025540486106040153, -0.03107222584816761, -0.05870155748566231, 0.01452268673009901, -0.0014807386792013058, 0.035382651746084355, 0.05251139214373943, 0.05830947044662693, 0.00017981457495699806, -0.029008619215908263, -0.003100980334148233, 0.054262224572964, -0.02274531794129499, 0.05514423290855632, -0.0007755824018167881, 0.004609254677986092, 0.007343986984346334, -0.049410561625504223, -0.011587371740255571, -0.046273993430746126, -0.013384104521644336, -0.035873380567355305, -0.040521301503068256, 0.050925405130243365, 0.04092244175070025, -0.011101300003348797, -0.009740477356752623, -0.03545193721065346, 0.04606054206145855, -0.015689912228755626, 0.004690790126254145, 0.000590366678598088, 0.007044690579043952, 0.0021231324579410846, 0.018973781152346443, -0.04549787615158144, -0.014840265162958312, 0.04988598931358114, 0.010469517363985438, 0.059727919830203736, 0.03297636416672265, -0.025410495373254998, -0.043559627837973916, 0.0015678776967778091, -0.02439955471164775, -0.006282535937985169, -0.07415428223268149, -0.01892725299779622, 0.026063769100268853, -0.03408420189748065, -0.06291341150400763, -0.04462107402320211, -0.0020896813315342162, 0.07989590011322666, 0.020597371554153084, -0.06113948178844589, -0.009156987681910768, 0.05144814704429341, 0.0513362499841418, 0.02701503248793575, 0.01322769298649035, -0.04089287856307551, -0.029630896522898225, -0.0023912147203089904, 0.05063855596197377, 0.02029878047031179, 0.0378015959478941, -0.11172937348340545, -0.03155572116391848, -0.028895994037325606, 0.09534046955208854, -0.0877058022678514, -0.04494759708438146, 0.02913393286358048, 0.005068674269085279, -0.02410885230949914, 0.04091958923706094, 0.027658917972046237, 0.005781376379371137, -0.0034964653184840874, -0.024511013172423317, -0.11007043677762446, -0.023848345222456536, -0.029416447864932624, 0.01197615640545796, -0.06642474808766796, 0.057168640355804934, 0.04416332710757803, 0.04857140435815978, 0.019514146923066068, 0.01131397889593797, -0.05682640386775221, -0.013508224857788829, -0.07972971670602597], [-0.001422738495597575, -0.07955394823013406, -0.02029964239630315, -0.04187184843180988, -0.0460662634802152, 0.017156522748881565, -0.03790025814456812, 0.03276285062802442, -0.022814002093476064, -0.03266736886932165, -0.05459758353747372, 0.03965672683656147, -0.009241568579158749, -0.007317892795417378, 0.03198453868714524, -0.03452199004648852, -0.04133715504998203, 0.0404336207560582, -0.004881260831831722, 0.026658506598886886, 0.034457783513195846, -0.022920181201706885, 0.018435764898577067, -0.03419189321890684, 0.060645130836594674, 0.011080122255729836, -0.012197490451625043, -0.0459829209649181, -0.0012192537358391609, 0.01388602863425321, 0.029737753678453376, -0.0037895945548563053, -0.032456498348263196, -0.067348401913144, 0.054171432865963154, -0.08448521063740783, -0.01600746951815297, -0.012514058617503489, 0.07614897452293606, 0.005773550765236082, 0.0337403715723534, 0.017214651033196377, -0.03825749327189421, 0.002015954108871504, -0.020237671908967348, -0.019271791618616845, -0.003368321909310652, 0.0018216955098352863, -0.0072184466981529746, 0.011285640566667582, -0.0372298160150085, 0.00130373208926889, 0.009007712375962654, 0.013758016587802208, -0.03148263243255266, -0.011815925280611237, -0.02294784497994278, 0.01699721013809064, -0.0318129100769187, 0.0017445021649687808, -0.038601681289644335, -0.022812724260348475, -0.004619468912836957, 0.0020235514244887187, 0.013699908549191763, 0.0023645251906839757, 0.01787693412324685, 0.008422739164499662, 0.043233855239872346, -0.03603647370859299, -0.05126894612492157, 0.015409397535776834, 0.03258933455995224, 0.011987174300515272, 0.01458819427436252, -0.026981396246434187, 0.00033381054666737904, 0.018251521532377614, -0.02631807963003835, -0.021839402952236277, 0.03465494872053212, -0.024686269902550503, 0.0018186960672275543, -0.023339470845582393, -0.00031994165059885953, 0.018090639356356634, 0.03130115830725901, 0.004452600909790315, -0.04387176771871067, 0.029807538028388585, 0.0030657834041698173, 0.05595213502470746, 0.0009240971725681987, -0.004680871380391771, -0.004330906529185537, -0.0438971113380119, -0.027226396192940892, -0.06081713827499769, 0.011866330443993248, -0.0002615375986276307, -0.03194946071699072, 0.018756618951966415, 0.031011540652691325, -0.01600933724086441, -0.058052364969942816, 0.022247005357322023, 0.02457898411935473, 0.0007060678905879628, 0.06265758495358213, 0.0039476963035395786, 0.019375109031023584, 0.03184515992841059, -0.01517242433638942, 0.03872657665544275, 0.01305379636972904, -0.016592143500036516, -0.034083280594834044, -0.0515221221611647, -0.00560230694257304, 0.04357925150495218, 0.01198927571882132, -0.029911983476841313, -0.04088666371516553, -0.08341833398655533, -0.017077784317499366, 0.08700073721573894, 0.029231949837607532, 0.04206274875294839], [0.04394222691479991, -0.007551235829109972, 0.02402436932257446, -0.013940534402008674, -0.027790167088647733, 0.03466333768814946, -0.030952679988420318, -0.050261175956250494, 0.0024740717771819074, -0.0180950815739315, -0.02035293072826245, 0.008954151590095358, -0.020672791374892953, -0.035828614003435705, -0.004861393584965945, 0.01871230676345113, -0.02849818184337953, 0.05115047555000915, -0.00956278089269052, 0.055447340011532474, 0.041617662679480985, 0.006826467795056449, 0.009422265295862504, 0.013674871652867146, -0.005699165610774654, 0.03794252085861194, -0.029356560101843066, 0.027500384331494144, -0.0006223195854505111, 0.03804432316481313, -0.02761039055850402, -0.03421398657589839, 0.051167371016226884, -0.0009367649571941368, 0.045246014817367695, 0.08964514522902262, 0.06230080818595358, -0.06371688097370388, 0.0045321123899513555, 0.034016362229779024, -0.022878408073185974, 0.011455616161140303, 0.04061185465283679, -0.01759761205976839, 0.038271448482124285, -0.016466070382709218, 0.05389455759892688, 0.03356669809431419, -0.003355001635571793, -0.006459981496599864, -0.033971608189225726, 0.03438291723541799, -0.034047995109292184, -0.017418122098647976, -0.04409823082847131, 0.026389925533653782, 0.007125439651563136, 0.016589757991704757, 0.035616193028155996, -0.002154174588708222, -0.018348587924174427, -0.004603208484233119, 0.015139309156758245, 0.006230475590941466, 0.03276666904875436, -0.03215320660097774, 0.0016820513356235454, 0.019772342356074724, -0.024471196397075297, -0.012499894483982426, -0.04453986240956053, 0.01814918283174955, -0.039115026461759864, 0.10029986563468199, 0.02648315330899082, 0.00555524990293801, 0.07214673625588555, -0.03511418767660186, -0.010994934781150463, 0.027289964728095945, -0.006486569105991786, -0.0008646419765142946, -0.017296891863326468, 0.014796295772416285, -0.02098648532003139, -0.07277615082334284, 0.030656940724907666, -0.012683112325058275, 0.046714835292025435, 0.02679577109704403, 0.0038596574698480947, -0.012078943812950965, -0.032066997400068124, -0.03858695000353892, -0.011896161922261487, 0.018991284716516562, -0.016957890562510018, 0.006689168962792896, 0.004539003887495092, 0.0053738507233674696, 0.016327923192043875, -0.008766744331588885, -0.025110824918237178, 0.007827663659802015, 0.02084048295106272, 0.050771975820397504, -0.01958970917502594, -0.020420002404916652, 0.027673313492828477, -0.022683171124330336, -0.03693119933268021, -0.0031959246509905355, 0.03887478271401155, -0.017909638657333533, -0.05235555470019282, -0.04324574601327, -0.010463285170371909, -0.020819851086940778, -0.028795057211840603, 0.003634981117570743, -0.0030117417868353244, 0.026758914504363105, -0.020438689226851704, 0.1003460520448113, 0.003598062472924879, 0.02061370790180245, -0.03337152383036538, 0.03125413039104631], [-0.05686285381748787, -0.04619480701586756, -0.031461186761864685, 0.010167964182199857, 0.031848408836477375, -0.02976036525404344, 0.05669658444286898, -0.022229014603580264, 0.026483454476067796, -0.030447107953114404, 0.00872072239620713, 0.016182333026384742, 0.034599412430603806, 0.015022198852964866, -0.0005171941153077878, 0.009810217314629168, 0.009212752321821128, 0.004355839928489951, -0.052980924275994504, -0.02929145490868358, -0.0012763110991629624, 0.011196357452850155, 0.048818690087464436, -0.03238039748346688, -0.029806131721406403, 0.035074722009530386, -0.06373487095819523, -0.03278387191732778, 0.020828574660816546, 0.05349682312151691, 0.019133594177702957, -0.04027854658491632, -0.026410521815842268, -0.002111471646736356, -0.06443222101667616, 0.01674130040568661, -0.043666668617540066, -0.007186567590912223, 0.03970174666660079, -0.06033829770206295, 0.010465861477614679, -0.031843741003767495, -0.05565187092966686, 0.04844081397407481, 0.042762774031830604, -0.054183264806324495, 0.026359010820977618, 0.000460651078030833, 0.12200648846288188, -0.02486947875677109, -0.056927215919101326, -0.05154709160064653, 0.06854215959391277, -0.06742572792709367, -0.02261166354635148, 0.036972562060168974, 0.03464461973123285, 0.014474772314856579, 0.004620933484992074, 0.012555463069697317, 0.003559370560634911, -0.01999280879829737, -0.010369000395516496, 0.05759981667467963, -0.03714639560752993, 0.015530323337645233, -0.013467770765138075, -0.0495061928127152, -0.0027248401975235553, -0.06380925072768666, -0.01669515928518603, -0.058516911959574716, 0.014570904647111952, -0.04186531297496112, -0.03973120330629596, 0.010689105067874094, 0.04410657443584548, -0.03477637975053958, 0.025660992963848116, 0.0026189512502173573, 0.017416528084333287, 0.016341764298760705, -0.05723409891377474, -0.025661885902254197, 0.0019304822789930458, -0.015276327920967359, 0.012592022727847374, -0.029678464290617407, 0.006151155265621641, -0.04896813077738819, -0.0095542311571942, -0.015192012328410965, -0.07804258240629151, -0.03129389522420299, 0.009103381512688871, -0.048768169088208746, 0.0260267668194981, -0.047181418425358286, 0.008568175075366079, -0.0036219651768901605, 0.04939440479747235, 0.004344294887749976, -0.009178360565755933, -0.03500017454826829, 0.0072216569427569, -0.010068967579250998, 0.013994982771433129, -0.01675192889346809, 0.04312203789081634, 0.011331216874055298, 0.003449628869381051, -0.0408669282662347, 0.03864209923920255, -0.011617656127337932, 0.01877432146810182, 0.02959565295306322, -0.01337072578226298, -0.06287799706969882, -0.027565973612302407, -0.022613300070115368, -0.05683148000914218, -0.033267981353341074, 0.03506112684323968, 0.0660625136639374, -0.00529251667082303, 0.039805605779254676, 0.008240484450229194, -0.009377441397547443], [-0.016504077419565527, -0.006077749293532668, 0.014480940731655133, 0.023130881133751134, -0.04063614326922515, 0.01965878310047892, -0.026999028920221827, -0.008553092488589773, -0.019179134647746284, 0.013950710485461733, 0.033368934276005444, 0.014544367852469809, -0.008038874176362301, -0.008239738044053207, -0.023208916193104074, -0.036298299829644665, 0.015599169658022586, 0.01871517486413492, 0.01273744829385678, -0.04566709693592554, -0.057673747458208566, 0.012082322726855879, -0.005029689541253631, -0.004667455858139953, -0.00363517528156545, -0.024777976765254686, -0.038138118493432314, 0.043298459281445385, 0.020629603849086475, -0.01283552080397117, -0.04116027914733057, 0.018110037869156482, 0.05271649348922085, -0.010556632881287798, -0.05977981564705806, -0.0350327435240341, 0.04351409496299199, -0.03475564009245812, -0.005781229378947335, -0.008651895860773176, 0.014548386474190378, 0.01774312981373168, 0.015280537479403727, -0.004854739168181282, 0.03563360092739165, -0.01827141271672226, -0.0001783546355262179, 0.044339212106588255, 0.011227837923967358, -0.016497600142603597, -0.0021499568473422825, -0.02772303899137319, -0.01909541259454956, 0.0009695075086441881, -0.011972386977130078, -0.012707984418017605, -0.004260308250176473, -0.0016945504744209125, 0.033719576482040436, -0.006980243620146667, -0.020025161756050694, 0.015235023688536105, 0.009500234144696607, 0.05309888736384963, 0.06365564907466666, 0.005910606583891742, 0.04058635142481012, 0.02092599264512999, -0.0013074929877717413, -0.029305014236803376, -0.01888646514215659, -0.0009764424695291498, -0.08364574325634302, -0.019500301436545055, -0.037333071094454995, 0.05237976073719358, 0.054240581775915654, -0.008955259138734349, -0.01112492258395697, 0.03688760336050184, 0.08315878876866648, -0.010324049893140522, 0.008275011534497362, -0.007137538221152676, -0.046803495563203915, -0.04626289671178371, 0.011679558459160204, 0.02494319253741197, 0.010539431942104681, -0.01660235679525991, 0.031718059511068764, 0.026808807063498242, -0.031012568947845848, 0.04225459221891357, 0.014641469846897986, -0.05269459051218576, -0.02186248991092837, -0.005988840737688629, 0.047911661170083476, -0.016593423375589462, 0.031314415097779554, -0.03044378953701903, -0.02183054800764658, -0.043537728469020015, 0.02751965464503401, 0.03047528412078428, -0.028557631587836335, 0.034982506061135545, 0.023035635211273258, -0.08361733851237857, 0.05518741694948344, 0.05503512141412544, 0.019720096209696326, 0.010807024572727406, 0.032042102676809056, 0.035730936170330956, -0.01260812109848708, 0.0012120085085287069, 0.03214744290821592, 0.03991642022181988, -0.013641014071740658, 0.0403759316067601, -0.0064417336040639055, 0.049095995465580376, -0.03114845531069921, 0.07137511867634072, 0.04372656584274594, 0.059794819330353695], [-0.008150605455311882, -0.023662169460025823, 0.03077192757391607, 0.07591725985247444, -0.014020795227491042, -0.03093277934554009, -0.02334686267990988, 0.05655891497632939, -0.008245789141017283, -0.056845724293114075, -0.074568425166672, -0.019354516810037206, -0.030244857402357973, -0.0327143526645792, 0.032372208196828844, -0.002435298699547755, 0.007455163918046918, 0.016207859381126007, 0.021775690407229542, 0.016686845301920626, -0.03579151460946124, 0.019530960122157135, 0.008077916415269573, -0.008390486852885183, -0.01251394989719787, -0.021116799639802904, 0.03395863892614004, 0.013150847637301519, 0.023124910867267867, -0.08166583305301206, 0.010967425696089234, -0.0721266478567674, 0.02314923653311868, -0.025897879435445564, -0.06745229686748946, 0.0776129051398116, -0.02740192796703381, 0.0034014805407035884, 0.042423852528246556, 0.02201704812244017, -0.07123956780580958, -0.06766435036398054, -0.025628602710122756, 0.05655036487145511, 0.04119081119955289, -0.009810732679359713, -0.02150879331657171, 0.049893220021254715, 0.02444912931813519, -0.03705645839956785, -0.03427445329798404, 0.07172078499679156, 0.008630207883810461, -0.001454893410924493, 0.04687680171757856, 0.00865682985679497, 0.0005224766296220589, 0.025804807008098386, 0.00039142588557762375, 0.05755613840547683, 0.026839981911288058, 0.042798376726542416, -0.05990615226211888, 0.03361488360235918, -0.04923200297739012, -0.05239912796040245, 0.003937606416673643, -0.07658589652255963, -0.006593364000218646, -0.006188552070267293, -0.06779385260468784, -0.03081491978590457, -0.02490333012026647, -0.007292800352569141, -0.05331144030357502, 0.05567369969717779, -0.049536148313732216, -0.03316888806209555, -0.011420196502612579, -0.011866773834533866, 0.003940496856343403, -0.026502544864191457, -0.0022295045462571677, 0.04842152788292492, 0.001488083813342192, -0.0015045168000507726, 0.0179216409718363, 0.030926520429395768, -0.06519356617620163, 0.0022360712893890037, 0.027297427386335577, 0.05447552154806886, 0.06926849222196352, -0.0033447445573871614, 0.018865831470294064, 0.04953711642997549, 0.022936577948854217, 0.0211876007584263, 0.015278428879420903, -0.07708348831283685, -0.005903408805753147, -0.04731118002624469, 0.005042145959185208, -0.01654635840275847, 0.0488153635357917, -0.04116645944812498, -0.0871256529563114, -0.0012772401523211431, 0.005541375843700299, -0.0032031065818835646, 0.012392120384153356, 0.022806781505810992, 0.038891160844052954, 0.003765605631610236, -0.07859024770968438, 0.008951200931686415, 0.04883083693242559, 0.09258991448430505, -0.0329935517055922, -0.010127987180078908, -0.011123264489256985, -0.03035193154709104, -0.027553715745962153, -0.015711545527028484, 0.015476844691781266, 0.010751027296759058, 0.007086124562806505, 0.0049627301413688076], [-0.014474176015101935, 0.004884921323248041, -0.004504813934673422, 0.02589370967120123, 0.03885969962721515, -0.04838355143320435, 0.010240011592564385, 0.03243157983474279, -0.06254167174418819, 0.0017341639408565825, -0.0015741733198870672, -0.0062448517732225884, -0.015886701493267586, -0.007163419482939852, 0.06322942968565558, 0.04461320105421397, 0.029783441706075196, -0.008274753923422832, -0.006062038382073366, -0.04929060029258134, 0.044190141727919414, 0.01310779064869571, 0.01956988296383731, -0.04828352322372598, -0.0029434043249209636, 0.027335693948562244, -0.03879104247201256, 0.0289286142319383, 0.03773419657442326, -0.014390623125835713, 0.06301135730756394, 0.02132070283440975, -0.012350017711714081, 0.021018430031616433, 0.0349374934990952, -0.044990809884009164, -0.0406709372904863, 0.002981010946211301, -0.015043336520167764, -0.03254343881738101, 0.018241456009560356, 0.04225038019299173, -0.03637093792479523, 0.04529241907307403, -0.07616995787587631, -0.01847465375523287, 0.025899179478806943, 0.061563888416818376, -0.0314433940425052, -0.09085612825425173, -0.022384496669308536, -0.09009225178388189, -0.05592643855889987, 0.004703806204519914, 0.02849617045519745, -0.006549988905311884, -0.005917501344831542, 0.014789562904229772, 0.015108533483224636, -0.03672015902605138, 0.05764899355089794, -0.02781619400387485, 0.035130824255412835, 0.024435840480868845, -0.05182467254347718, 0.013636582706010649, 0.013153625398108859, -0.0207428977525764, -0.05439401147441383, 0.044492118138494845, 0.02179017544094464, -0.029937880418665724, 0.02041571412827248, -0.003346604476055967, 0.020751326661453406, 0.013545219586610981, 0.032017262911520246, -0.024953822204836947, 0.030695832219036562, -0.018623802131240125, -0.040276575992861996, -0.06941210793214554, -0.01946242092034305, 0.033407027523430805, -0.0018481133188431038, -0.0029398758292451463, -0.006747096838746261, 0.0324584819723776, 0.013279851936931384, 0.05284691363841289, -0.014602824018096374, 0.06495998514288408, 0.014078551972527577, 0.006255936442813033, -0.005923222398402803, -0.019692829661049988, -0.04842381275806046, -0.06638779623350001, -0.010093687389226183, -0.002259566005353704, -0.011519148127198795, 0.030776844642108246, 0.0028911679764610687, 0.02765607686333315, 0.06536573371920402, -0.016391364967524857, -0.00167948605675343, -0.027557030568686285, 0.04475184977278213, 0.05108493819571986, -0.01089892160996061, -0.025096527684333902, -0.015360934689612004, 0.03907708647047704, 0.07844766376679774, -0.03628426213697583, 0.019785914865747805, -0.007113747488415696, 0.04508867171827843, 0.024679956832057485, 0.013249127445399238, -0.02990068206603037, -0.00315150004386232, 0.04403708824420949, 0.004017871973515371, -0.03955892442510737, 0.015237945731286784, 0.02141178261351346], [-0.06140242217838652, -0.0030845123388474286, -0.0018051918753311195, 0.025211225951042877, 0.046685946264070695, 0.0679436055693802, 0.033386123333662115, -0.008504911521725287, 0.0367220004448269, -0.07497289169550479, 0.05438372780998377, 0.029361198089858695, -0.042301867757206284, -0.021297961202016248, 0.017574890224634196, -0.0014435825313624073, 0.011879573158108022, -0.022437582863991713, -0.01526288757814343, -0.012592333713122886, 0.01577332021604831, -0.005455896540921, 0.05668060209700358, 0.02811718146645923, 0.051382346987099786, -0.06940203485514457, 0.037087013408492776, -0.021712233610415563, 0.006746460472366175, 0.0724718736534255, 0.03195597650640259, 0.019988190555110353, 0.04668384415771829, 0.048052655359217725, -0.027749731839232898, -0.016750531186097616, 0.008829563924699288, -0.025205291886404895, -0.019139205285016777, -0.000192124269879651, -0.018866951862096387, -0.022571861249431845, -0.018519262551704146, 0.002955422174916319, 0.04380522844764191, -0.015832781765570837, 0.012207346233826277, -0.07312325279014865, 0.06292101670106179, 0.0671660741862203, -0.02281073094547851, -0.026389855798208156, 0.035903854340065884, -0.02788215130650084, 0.01310911091669876, -0.04314487703702915, -0.08859137347664829, -0.013133406324218048, -0.016234942706516244, -0.03307317330649975, -0.06023401392382409, -0.013904638837220182, -0.00897208942489722, 0.0036941868336423734, 0.061492048756510514, 0.015494290866866387, 0.050040322047326925, 0.0527113932713791, 0.05604246825718997, 0.057952595003485194, 0.005053490571121937, 0.04631110578824782, -0.019280998004646336, 0.026571205738757143, 0.036122714396444225, 0.036471253732632436, -0.0016676379659871692, -0.010128372391934542, -0.014933402840404696, -0.053522546785036686, 0.017164013929446796, 0.06692225221903397, 0.0022099788747426945, 0.002895673935872792, 1.8888278349669146e-05, 0.007300852081173845, 0.009241093647969913, 0.0512932361517063, -0.05897236220080574, -0.013919285719632765, 0.049246787702898955, -0.0027352842998229258, -0.019062842745547235, 0.030249311969956106, 0.010679445456700708, 0.0521688627564871, -0.015930711412564195, 0.00014166444366735243, 0.053698055909729155, -0.017288205934975404, -0.01114058071865614, 0.09086929002023743, -0.06538072452492008, -0.0496916879931091, 0.017967434278610944, 0.01403307030056445, 0.04906799326265551, -0.04918924461229145, 0.04813731345145453, 0.011677753581868533, -0.017017435079918562, 0.010019157010646557, -0.007964209731202874, 0.01220713723893494, -0.015482044321976092, 0.021399799069733577, -0.02596288028822515, 0.06553350629404602, -0.00882499302197702, -0.0521002242868934, -0.00630782112514706, -0.01658042578592631, -0.01647590328331336, 0.014320302607345911, -0.014167057211530661, -0.0016579411453169163, -0.08397305094910486, -0.020067775539947437], [0.0004940994291716812, -0.050716250758193665, 0.04461747124314443, 0.007231005290637564, 0.09707815640332929, -0.031099488867001375, 0.03702994565125573, 0.02157213213473183, 0.02223574223529801, 0.001196482435999835, -0.045841447691908344, -0.03724170231568181, 0.005566698371787202, 0.01256068165458688, -0.028522364075744384, -0.017859800654217595, 0.02835036091074698, -0.018895935864406157, 0.03569136603362673, 0.03135938646630904, 0.027248689058851056, -0.007727310199660385, -0.055248390674792855, 0.07655685665205272, -0.009788155284083068, 0.04337456951086014, 0.018360760746589773, -0.028302753459261466, 0.04178921353160904, -0.008756260065972417, 0.000243616601675287, 0.006033714207362513, 0.03725788365697826, -0.07326488321520025, -0.005822411272043895, -0.037288893735876294, 0.013977493186926487, -0.007580023227471274, 0.05051608791483223, -0.02265287595422151, 0.014676063356093632, -0.027078818707414923, -0.00013880291453378888, 0.01219845197083701, 0.04340249409219365, -0.003650711009390997, 0.06864570229977392, -0.08479479882283845, 0.05505438081241337, -0.043791713540244664, 0.04307958109510413, -0.08946912636099338, -0.03591915820600991, 0.06004674276854969, -0.019400756321619018, 0.03131973845384575, -0.012597894338867136, -0.03679181467381331, -0.0900271289681221, 0.04809361279656952, -0.010491225425332486, 0.001418852601697421, -0.03641000866026284, 0.04745276363812362, -0.027129990113640177, 0.018882172035735233, -0.0218196107380825, -0.020340392304462333, -0.016511112789537926, 0.02234805323161269, 0.04313237994568093, 0.03742367387158016, -0.06846752287462851, -2.826159538426587e-05, 0.015212965210780421, -0.03469874746198096, 0.05316111236881328, 0.04796242956912093, -0.022114788775343536, -0.008562815239985005, -0.017665383987923142, 0.034168080747175276, 0.0302282782295084, -0.01609114188981169, 0.03211826247950806, -0.005972094906862676, -0.013681087819259866, -0.008788301314644665, 0.030791434594390276, 0.05895367374039419, 0.0012360611406883805, 0.015721925291539228, -0.058861719597833456, -0.021946082919292478, -0.010962174122407327, -0.01913747102280237, -0.037944924871617505, -0.04591540141363323, 0.011059949965444635, 0.009575671497801594, -0.06327403609789274, 0.007481990705579038, -0.016660357861652028, -0.0030486250287399415, 0.04316634690583147, -0.03184602319105526, -0.05714698328932971, -0.009569289175582578, -0.0596621367997603, -0.033247191825240684, -0.009868450573150016, -0.010070082998577388, -0.029754587482708997, 0.05361040236815244, -0.013721400358555867, 0.05660388639553482, -0.08311490066882476, 0.09275495305269714, 0.00194450667228615, -0.01681046668767431, 0.03149587523497986, 0.045573462879968565, 0.004744966205170225, 0.04269940466070186, 0.016933641120417484, 0.012243586991076466, 0.07356600281547808, 0.0015994375341569058], [-0.0363493543762469, -0.03617127320276937, 0.03907112377436052, 0.025328606393440013, 0.002946141120954904, 0.07746777645063523, 0.008719886852266896, -0.010634012062829377, -0.03247777736982457, 0.011868187949047454, -0.036603053408280864, 0.07171494985184179, -0.022717598403803083, -0.03316444157199678, -0.10290293948890068, 0.037752349181207914, -0.022469212862709045, -0.0053842118966608175, 0.019775634744242127, 0.017735650689274775, -0.005469843295762806, -0.0037915489048030077, -0.008024771354418899, 0.017059130121095084, -0.005497403777478263, 0.0016249650008100653, 0.06271998879139092, 0.05207166173403175, 0.05031437685483134, -0.028873824011729787, 0.030300770187205412, 0.002937457537467864, -0.008990445609249546, 0.05436153638997996, -0.042899275400443554, -0.014975794110607066, 0.020004215302942233, 0.004751848521735377, 0.007939503039249913, -0.02104131599637947, 0.02132069785691474, -0.03162325293413517, 0.043885426386264054, 0.02637008602820646, -0.017914224919726954, -0.01712167431305926, 0.015634663200909216, 0.05640549852199891, -0.05321513908214641, 0.08552680214337632, 0.05317163686774099, -0.01263625736309804, -0.017870085909716033, -0.034549186794797744, 0.03601637562834038, 0.004066847904921751, 0.033056702796146496, -0.053948089762310615, -0.00714624145278871, -0.020540522937120727, 0.011368365705467027, 0.019877068838748308, -0.01889153170855516, 0.005131826612229627, -0.009195083005139998, 0.01172541095556967, 0.024271978599273346, -0.03488764376447025, -0.01473023943898739, -0.05162617208786123, 0.016814656576811776, -0.028003322752225293, -0.05885172547623975, 0.03719207256919285, 0.014616137155401259, 0.003110252983064442, 0.005282674351279719, -0.007294226891380138, -0.04001341184732968, 0.027607175608081333, 0.048828987650955114, -0.05460424139445738, 0.042916639764997724, -0.053243185987866114, 0.03310400022497525, 0.05869416453368449, -0.049385789149430516, 0.029357779455386805, -0.036823039149399266, 0.01936025383794718, -0.029818305773739544, 0.0008514891602797208, -0.0025873994133249686, -0.052944311973992596, -0.02941247800210669, -0.032053222158129856, 0.027100390900379596, 0.01626707551537814, -0.021909042272742825, -0.004434780557355536, -0.024481306544458563, -0.04855685304181787, -0.007472882467074418, 0.024811570350249383, 0.029135019222137525, -0.03323866838434744, -0.020036044344927412, -0.0004305041977992142, -0.016120523064722374, -0.04555234042434039, -0.08545939057904405, 0.009937539749483084, -0.04101297350607726, 0.03696949223607696, 0.010041347171940624, -0.0319794808006885, 0.017582518633506686, -0.03915941204825868, 0.03716512501637782, -0.05300058293679094, -0.0017250681666316655, -0.03366520212690046, 0.007954796054052218, 0.026371978848497696, -0.028796426335772844, 0.009050717234882797, 0.030330902606822766, 0.03702302355983422], [-0.004371069001751324, -0.047857336277928555, 0.033951854421852466, -0.034594945535546553, -0.06636951017091647, 0.005723006829950005, -0.01009617899327308, 0.016629464078172607, 0.033227992180706926, 0.030742483734191757, 0.06187135600313863, -0.04231990305928244, 0.02314980535061418, -0.0025803549595762743, -0.02519966044832641, -0.02294873622302615, -0.03915988877099908, -0.012957553825245676, -0.025861683126803325, 0.02648134923311209, 0.023809565181766894, -0.007346935819441244, -0.05030161716065292, -0.044655924123337444, -0.0007802398159559458, -0.008326574657799426, 0.019822909221289695, 0.024089801234988537, -0.027039900473873932, -0.07531189315601305, 0.018590640925969956, 0.02222988265669047, -0.0350492397981406, 0.04401469122533768, -0.022019630817573917, -0.03292630222326201, -0.04916684531683925, -0.012743318717522826, -0.07023081140592505, 0.05449561397318959, -0.030475945467554423, -0.04992558315802943, 0.06879249943009623, -0.004109470675861203, 0.08887474858310414, 0.007218469354528852, -0.024614877484828452, -0.026470719688023094, 0.028185446763795644, 0.009013399195289913, 0.03991876147927806, -0.006456661862398719, 0.0027254715271634224, -0.030162801316228022, -0.0771523297742888, 0.018301982266062645, -0.03531018458605046, 0.038306029281239905, 0.013857505372077628, 0.03734232970904144, 0.02271144589592513, -0.014984772747645083, -0.06518896665191586, 0.026708073605951038, 0.06274726596078586, 0.0483541131638094, 0.07778130744997773, 0.04241734104481489, 0.03761993165616467, -0.020380787206889524, -0.0367621741589994, 0.046723934319671596, -0.0856401384308481, -0.03523172269944714, 0.02156449779222645, 0.03220070220760543, 0.021262997568931224, 0.03608547319246646, -0.009372444967799284, -0.003930068309779622, 0.051777197306815945, 0.10944444394607396, -0.024734809963364045, 0.033008468895288544, 0.03719037795000011, -0.04542800633890867, -0.036014269605889965, -0.06495230231611211, -0.019073566428318714, 0.024217613297253353, -0.02146376832356081, -0.024942679252914934, 0.04161464452984049, -0.059031273326859, -0.0333636203678507, 0.004997743002125688, -0.07992291053020444, 0.026738020231069796, -0.035656558518602575, 0.02583169334497508, -0.006803102628004502, 0.07037281826122778, -0.002981037196033847, -0.05918688123171258, -0.013881652215692502, 0.02887913823875233, -0.00034029594965495516, 0.06533676341537482, -0.0014857880777179712, -0.0035104247569996564, 0.04537620084313787, -0.020229248549973922, -0.0016531845300306474, -0.06720183098628481, -0.021241344197622875, 0.04850273435980735, -0.0513580822221109, 0.023647180019149845, -0.02185321073115325, 0.05683174078071309, -0.09322013090583789, -0.069179931724149, 0.022302730545537493, 0.02917556626177853, 0.00945630738945378, 0.013375875164573453, 0.04609700209651092, -0.026536838777055115], [0.05537565944821346, -0.022798917505994568, 0.06871720289885827, 0.00744386186284945, 0.012659564849838274, -0.028587705007994672, -0.05785618247648586, 0.06521864415414029, 0.011513459964765365, 0.020995649323972177, 0.03518869769224252, 0.007620495075917236, 0.03297621342906616, 0.006182221258678994, 0.025566656919057344, -0.04229312233022318, 0.006298292445003748, 0.0032580557891151597, -0.04138625619208581, 0.07022340968382432, -0.016893704187557996, -0.01359364217005081, -0.030877799232365572, 0.04237535872315434, -0.025055717201819722, -0.02604547663784418, -0.009894443549401685, -0.024841357917108908, -0.03282905647082764, -0.014583610385746532, 0.0442031640146727, -0.05691707695274138, -0.00602909472140708, 0.02815428186245914, 0.03070430657803273, -0.00798350289003124, -0.03395756668600439, -0.053818377792737765, -0.020559769533841317, -0.04024269329896135, -0.015127876437076651, 0.044826667125496995, 0.0798601073592407, -0.018347055557723622, -0.020308535351807246, 0.02838882171495981, -0.05279212432907868, 0.029975788836004345, -0.010274714252132451, 0.0454134627579502, -0.07163072210336506, 0.08209031700107482, -0.04745377141874067, -0.052605415252818366, 0.04580957268986171, -0.004578745882397198, -0.07242703840939413, -0.04104119967230407, 0.02452248607293803, -0.06972970510061995, 0.00011615524688818711, -0.05459112777054591, -0.022538916853227564, 0.005554670960313936, -0.018991543386742783, -0.00861679575205612, 0.003125184143038992, -0.03984716137594964, 0.005594525826674413, 0.060552273211240494, -0.04262949716885958, 0.026255604633857465, -0.055681879248842894, -0.02592324102705968, 0.0024793039653902196, 0.05934898317982854, -0.042021670551110175, 0.021209337876086837, 0.007270799401778667, 0.031036963429625003, 0.03920647169055188, -0.019979589361052773, -0.06423700006652353, -0.043908780128841085, 0.04810780345655305, -0.005883012434311595, 0.01309639893176134, 0.009632486710757606, -0.023784766124597383, -0.02076261616992349, -0.03405778943882311, 0.04029457028233635, -0.00032133830082328653, 0.033118242600287645, -0.04806541305720593, -0.06113161918063557, 0.018892790174125988, -0.07545784572962472, -0.0022423092106276313, -0.008737879169680244, 0.05728947390852579, 0.002213527714044721, 0.021138460276203433, -0.029098590634209644, 0.014667670914543116, -0.03206325492930479, 0.007148403520697964, 0.02472638292788662, 0.010126115698958394, 0.02962724629109136, -0.00030301896891229377, 0.028359661982380678, -0.05907815439722125, 0.01970966706921248, 0.060718587471342025, -0.05027434416088913, -0.009010874999487847, 0.021429855764327276, 0.029878650208679823, -0.040715260210354355, 0.005615806099335359, 0.026983561420162727, 0.006375924659731418, 0.030593789323195137, 0.031203151664522134, 0.08115296017167989, 0.016166176857691294, -0.007470145992283395], [-0.010460194533200686, -0.02244429713865901, 0.010230820399910292, 0.01275561808634628, -0.0014831196048415663, -0.00808148774950341, -0.02976061793238, 0.069679148721767, 0.011012577719928524, -0.06934639684787015, -0.0006849812112579396, 0.0011126479955239075, 0.02571183756076576, -0.02158209925292726, -0.026311615057411347, 0.0009118974442286364, -0.0070818863451725285, 0.01295653946286799, 0.033633433487817305, 0.09556659931645219, -0.0381322338308013, -0.01038109881674547, -0.04492305102338003, 0.064546689596419, -0.08908970186005222, 0.003416099231715708, 0.05599196053171063, 0.020341589692749445, -0.0073850126378694975, -0.011481646762135774, 0.06367359080989025, 0.028603527790894666, -0.010275671957202557, -0.03309870178633873, -0.004840167493003422, -0.01198673819995491, -0.027987190017690164, -0.026453463326088666, -0.008655282434035029, -0.045885357403795464, 0.019471666339306044, -0.04520072996721609, -0.0525713868770151, 0.011023038690976917, 0.00428113124807093, 0.010762242710763344, -0.022169431053624972, -0.014597112640476273, 0.002945283522718717, 0.015084799877082014, 0.05878130599538148, -0.027306237956431716, -0.03786302535812528, -0.02427900827576076, -0.04037540658466016, -0.008883223452292038, 0.007273635043710226, 0.009523619355077376, -0.027926823882656063, -0.020982008349697327, -0.0009094591564501367, -0.022712775278222325, 0.02704834633243376, -0.027074279426965477, -0.02282588131145045, 0.02907072936736846, -0.003208533344072368, 0.018806681994644362, -0.06718410427293314, 0.021071802945553133, 0.059490420928351426, -0.021376018330833507, -0.003526019358282225, -0.03804057652161549, 0.05213283265638104, 0.018989727617680394, 0.06199966138504285, 0.028158668044552145, -0.04556537957890261, -0.010757582652775936, -0.09876285671391077, 0.019044875049977827, 0.003233332848466154, -0.055165671275842654, 0.0034169297394053186, -0.007222083974630091, 0.015332144622294222, 0.02202308652274454, -0.0026109931457462773, 0.013897992563411059, 0.029084227087669022, 0.009654552485675082, 0.003318378276430978, 0.019215999729174482, 0.07838988350670278, 0.027723146010163464, 0.05743050496685378, 0.0375963512027662, -0.0020292645684515088, 0.0036424042754382444, 0.07140824979371051, -0.013223558557993753, 0.0200524062621254, -0.007899410512043441, -0.02639171613536625, -0.010602513686140213, 0.07858978397366913, -0.008956742374821023, -0.018983865352308418, 0.05419779497579352, -0.040342879083031545, 0.013089654612706354, 0.0208510100517706, 0.043865722644473894, -0.0070318148571623645, -0.012962010488164453, 0.013087642162741872, 0.0954877360219996, 0.01093549499514239, 0.050480035737000245, -0.04799469260277335, 0.031748757653745546, -0.04987652556159769, -0.1114494462210222, -0.031671724900861155, -0.029985594387152887, -0.07229112790919412, 0.0305230853410258], [0.027676077169594054, -0.011132363181669698, 0.009185286606775095, -0.04638838140531573, 0.011984883770327708, -0.06977689358178936, -0.044648320797605376, 0.010829254266755201, -0.039319737784124564, -0.00756575503857179, -0.022859274241323318, 0.05861815655668942, 0.02964825913639734, 0.0018045138981726372, -0.0009620493705232245, 0.0033193956655821386, 0.03491350831651943, 0.016203480854027938, 0.04376299216024653, -0.05073617820285417, -0.015447475845473254, 0.0046849091135226185, 0.033390543639312, -0.04611097875240845, 0.035185145619642026, 0.035373567912453004, -0.04793446966124055, -0.03713314452204394, 0.0035168971582543325, -0.03084933045410962, 0.011037488270096502, 